{"learner":{"attributes":{},"feature_names":["balls","strikes","outs_when_up","inning","score_diff","runners_on_base","pitch_count","batter_hist_obp","pitcher_hist_obp_allowed","is_home_team","platoon_advantage","base_state_code"],"feature_types":["float","float","float","float","float","float","float","float","float","float","float","float"],"gradient_booster":{"model":{"cats":{"enc":[],"feature_segments":[],"sorted_idx":[]},"gbtree_model_param":{"num_parallel_tree":"1","num_trees":"300"},"iteration_indptr":[0,1,2,3,4,5,6,7,8,9,10,11,12,13,14,15,16,17,18,19,20,21,22,23,24,25,26,27,28,29,30,31,32,33,34,35,36,37,38,39,40,41,42,43,44,45,46,47,48,49,50,51,52,53,54,55,56,57,58,59,60,61,62,63,64,65,66,67,68,69,70,71,72,73,74,75,76,77,78,79,80,81,82,83,84,85,86,87,88,89,90,91,92,93,94,95,96,97,98,99,100,101,102,103,104,105,106,107,108,109,110,111,112,113,114,115,116,117,118,119,120,121,122,123,124,125,126,127,128,129,130,131,132,133,134,135,136,137,138,139,140,141,142,143,144,145,146,147,148,149,150,151,152,153,154,155,156,157,158,159,160,161,162,163,164,165,166,167,168,169,170,171,172,173,174,175,176,177,178,179,180,181,182,183,184,185,186,187,188,189,190,191,192,193,194,195,196,197,198,199,200,201,202,203,204,205,206,207,208,209,210,211,212,213,214,215,216,217,218,219,220,221,222,223,224,225,226,227,228,229,230,231,232,233,234,235,236,237,238,239,240,241,242,243,244,245,246,247,248,249,250,251,252,253,254,255,256,257,258,259,260,261,262,263,264,265,266,267,268,269,270,271,272,273,274,275,276,277,278,279,280,281,282,283,284,285,286,287,288,289,290,291,292,293,294,295,296,297,298,299,300],"tree_info":[0,0,0,0,0,0,0,0,0,0,0,0,0,0,0,0,0,0,0,0,0,0,0,0,0,0,0,0,0,0,0,0,0,0,0,0,0,0,0,0,0,0,0,0,0,0,0,0,0,0,0,0,0,0,0,0,0,0,0,0,0,0,0,0,0,0,0,0,0,0,0,0,0,0,0,0,0,0,0,0,0,0,0,0,0,0,0,0,0,0,0,0,0,0,0,0,0,0,0,0,0,0,0,0,0,0,0,0,0,0,0,0,0,0,0,0,0,0,0,0,0,0,0,0,0,0,0,0,0,0,0,0,0,0,0,0,0,0,0,0,0,0,0,0,0,0,0,0,0,0,0,0,0,0,0,0,0,0,0,0,0,0,0,0,0,0,0,0,0,0,0,0,0,0,0,0,0,0,0,0,0,0,0,0,0,0,0,0,0,0,0,0,0,0,0,0,0,0,0,0,0,0,0,0,0,0,0,0,0,0,0,0,0,0,0,0,0,0,0,0,0,0,0,0,0,0,0,0,0,0,0,0,0,0,0,0,0,0,0,0,0,0,0,0,0,0,0,0,0,0,0,0,0,0,0,0,0,0,0,0,0,0,0,0,0,0,0,0,0,0,0,0,0,0,0,0,0,0,0,0,0,0,0,0,0,0,0,0,0,0,0,0,0,0,0,0,0,0,0,0],"trees":[{"base_weights":[1.8277974E-3,-8.200836E-2,9.250529E-1,-1.3978729E-1,1.7115457E-1,1.3889714E0,6.1647457E-1,-1.8879938E-3,-2.0902159E-2,2.928084E-2,-8.951006E-3,1.08376734E-1,7.491713E-2,3.3254385E-2,4.0766113E-2],"categories":[],"categories_nodes":[],"categories_segments":[],"categories_sizes":[],"default_left":[0,0,0,0,0,0,0,0,0,0,0,0,0,0,0],"id":0,"left_children":[1,3,5,7,9,11,13,-1,-1,-1,-1,-1,-1,-1,-1],"loss_changes":[7.3943477E3,1.2811221E3,1.1376709E3,1.5381637E3,1.5457393E3,2.0394238E2,1.53302E1,0E0,0E0,0E0,0E0,0E0,0E0,0E0,0E0],"parents":[2147483647,0,0,1,1,2,2,3,3,4,4,5,5,6,6],"right_children":[2,4,6,8,10,12,14,-1,-1,-1,-1,-1,-1,-1,-1],"split_conditions":[3E0,2E0,6E0,3E0,5E0,5E0,2.951807E-1,-1.8879938E-3,-2.0902159E-2,2.928084E-2,-8.951006E-3,1.08376734E-1,7.491713E-2,3.3254385E-2,4.0766113E-2],"split_indices":[0,0,6,6,6,6,8,0,0,0,0,0,0,0,0],"split_type":[0,0,0,0,0,0,0,0,0,0,0,0,0,0,0],"sum_hessian":[9.5532664E4,8.758057E4,7.9520986E3,7.130679E4,1.6273775E4,3.175113E3,4.776986E3,4.5879457E4,2.5427334E4,8.327624E3,7.946152E3,1.0613811E3,2.113732E3,1.6183914E3,3.1585942E3],"tree_param":{"num_deleted":"0","num_feature":"12","num_nodes":"15","size_leaf_vector":"1"}},{"base_weights":[3.3014792E-3,-6.0756303E-2,9.388307E-2,-1.0105958E-1,3.628692E-2,1.8065761E-1,-1.7661065E-2,-7.7782897E-3,-1.15069015E-5,9.102278E-3,1.4071703E-3,8.867027E-3,2.2259047E-2,-8.626787E-3,1.5273761E-3],"categories":[],"categories_nodes":[],"categories_segments":[],"categories_sizes":[],"default_left":[0,0,0,0,0,0,0,0,0,0,0,0,0,0,0],"id":1,"left_children":[1,3,5,7,9,11,13,-1,-1,-1,-1,-1,-1,-1,-1],"loss_changes":[5.5547876E2,2.1932521E2,3.8383975E2,9.741159E1,2.471632E1,1.4974359E2,8.9133415E1,0E0,0E0,0E0,0E0,0E0,0E0,0E0,0E0],"parents":[2147483647,0,0,1,1,2,2,3,3,4,4,5,5,6,6],"right_children":[2,4,6,8,10,12,14,-1,-1,-1,-1,-1,-1,-1,-1],"split_conditions":[1E0,3.4020618E-1,2E0,2E0,2E0,4E0,2.8318584E-1,-7.7782897E-3,-1.15069015E-5,9.102278E-3,1.4071703E-3,8.867027E-3,2.2259047E-2,-8.626787E-3,1.5273761E-3],"split_indices":[5,8,2,4,3,11,8,0,0,0,0,0,0,0,0],"split_type":[0,0,0,0,0,0,0,0,0,0,0,0,0,0,0],"sum_hessian":[9.572969E4,5.6074832E4,3.965485E4,3.9620074E4,1.6454758E4,2.2303482E4,1.7351371E4,3.190989E4,7.710182E3,1.8016498E3,1.4653108E4,1.8414723E4,3.8887605E3,4.480842E3,1.2870529E4],"tree_param":{"num_deleted":"0","num_feature":"12","num_nodes":"15","size_leaf_vector":"1"}},{"base_weights":[-1.5908267E-3,-8.1435E-2,8.5452914E-1,2.4665685E-2,-3.6903626E-1,1.2684245E0,5.743933E-1,-2.4828166E-3,2.8035238E-2,-2.97401E-2,-9.330334E-3,9.890309E-2,6.84401E-2,2.980525E-2,3.7996326E-2],"categories":[],"categories_nodes":[],"categories_segments":[],"categories_sizes":[],"default_left":[0,0,0,0,0,0,0,0,0,0,0,0,0,0,0],"id":2,"left_children":[1,3,5,7,9,11,13,-1,-1,-1,-1,-1,-1,-1,-1],"loss_changes":[6.550811E3,2.6748718E3,9.47167E2,1.7709994E3,5.707622E2,1.7569922E2,1.7234375E1,0E0,0E0,0E0,0E0,0E0,0E0,0E0,0E0],"parents":[2147483647,0,0,1,1,2,2,3,3,4,4,5,5,6,6],"right_children":[2,4,6,8,10,12,14,-1,-1,-1,-1,-1,-1,-1,-1],"split_conditions":[3E0,2E0,2E0,2E0,2E0,1E0,3.0357143E-1,-2.4828166E-3,2.8035238E-2,-2.97401E-2,-9.330334E-3,9.890309E-2,6.84401E-2,2.980525E-2,3.7996326E-2],"split_indices":[0,1,1,0,0,1,7,0,0,0,0,0,0,0,0],"split_type":[0,0,0,0,0,0,0,0,0,0,0,0,0,0,0],"sum_hessian":[9.5831445E4,8.7657195E4,8.1742534E3,6.4034688E4,2.3622504E4,3.2979976E3,4.876256E3,5.5616473E4,8.418215E3,1.5687089E4,7.9354146E3,1.1032291E3,2.1947686E3,1.4190773E3,3.4571787E3],"tree_param":{"num_deleted":"0","num_feature":"12","num_nodes":"15","size_leaf_vector":"1"}},{"base_weights":[-1.8574077E-3,8.1080265E-2,-1.9870505E-1,5.4372386E-3,6.027276E-1,-3.830338E-1,2.3209177E-1,6.9894213E-3,-1.099822E-2,8.886532E-2,2.9549072E-2,-2.964016E-2,-1.3027012E-2,3.099743E-3,1.5898217E-2],"categories":[],"categories_nodes":[],"categories_segments":[],"categories_sizes":[],"default_left":[0,0,0,0,0,0,0,0,0,0,0,0,0,0,0],"id":3,"left_children":[1,3,5,7,9,11,13,-1,-1,-1,-1,-1,-1,-1,-1],"loss_changes":[1.5612062E3,2.6547822E3,2.251064E3,1.1522482E3,8.9228784E2,3.259077E2,3.7551605E1,0E0,0E0,0E0,0E0,0E0,0E0,0E0,0E0],"parents":[2147483647,0,0,1,1,2,2,3,3,4,4,5,5,6,6],"right_children":[2,4,6,8,10,12,14,-1,-1,-1,-1,-1,-1,-1,-1],"split_conditions":[2E0,4E0,6E0,1E0,1E0,5E0,2.605364E-1,6.9894213E-3,-1.099822E-2,8.886532E-2,2.9549072E-2,-2.964016E-2,-1.3027012E-2,3.099743E-3,1.5898217E-2],"split_indices":[1,6,6,1,1,6,7,0,0,0,0,0,0,0,0],"split_type":[0,0,0,0,0,0,0,0,0,0,0,0,0,0,0],"sum_hessian":[9.562449E4,6.7278625E4,2.8345867E4,5.8759098E4,8.519528E3,1.985181E4,8.494056E3,3.702886E4,2.173024E4,1.1228413E3,7.396687E3,1.281539E4,7.0364224E3,9.9971295E2,7.494343E3],"tree_param":{"num_deleted":"0","num_feature":"12","num_nodes":"15","size_leaf_vector":"1"}},{"base_weights":[-3.1162791E-3,-1.16547525E-1,6.308499E-2,-4.247903E-1,-8.597766E-2,1.7217156E-3,1.5042678E-1,-3.3050004E-2,-1.3526815E-2,-7.644175E-3,5.091004E-3,-1.9857455E-3,8.837132E-3,1.4209916E-2,2.8116114E-3],"categories":[],"categories_nodes":[],"categories_segments":[],"categories_sizes":[],"default_left":[0,0,0,0,0,0,0,0,0,0,0,0,0,0,0],"id":4,"left_children":[1,3,5,7,9,11,13,-1,-1,-1,-1,-1,-1,-1,-1],"loss_changes":[7.178569E2,3.3193936E2,3.2353186E2,7.093768E1,2.0091422E2,1.6844518E2,2.0605841E2,0E0,0E0,0E0,0E0,0E0,0E0,0E0,0E0],"parents":[2147483647,0,0,1,1,2,2,3,3,4,4,5,5,6,6],"right_children":[2,4,6,8,10,12,14,-1,-1,-1,-1,-1,-1,-1,-1],"split_conditions":[3.115578E-1,1.6666667E-1,1E0,6E0,5E0,5E0,2E0,-3.3050004E-2,-1.3526815E-2,-7.644175E-3,5.091004E-3,-1.9857455E-3,8.837132E-3,1.4209916E-2,2.8116114E-3],"split_indices":[7,7,5,3,6,6,2,0,0,0,0,0,0,0,0],"split_type":[0,0,0,0,0,0,0,0,0,0,0,0,0,0,0],"sum_hessian":[9.559383E4,3.52296E4,6.0364223E4,3.1774792E3,3.2052123E4,3.545547E4,2.4908752E4,2.0846912E3,1.092788E3,2.6232092E4,5.820032E3,2.8601076E4,6.8543936E3,1.4240132E4,1.066862E4],"tree_param":{"num_deleted":"0","num_feature":"12","num_nodes":"15","size_leaf_vector":"1"}},{"base_weights":[6.3207245E-4,7.868749E-2,-1.849435E-1,8.222345E-3,5.6090605E-1,-3.5757062E-1,2.0915969E-1,6.7307865E-3,-1.0168751E-2,8.159466E-2,2.767701E-2,-2.7633041E-2,-1.2346878E-2,9.9633485E-3,1.727242E-2],"categories":[],"categories_nodes":[],"categories_segments":[],"categories_sizes":[],"default_left":[0,0,0,0,0,0,0,0,0,0,0,0,0,0,0],"id":5,"left_children":[1,3,5,7,9,11,13,-1,-1,-1,-1,-1,-1,-1,-1],"loss_changes":[1.3837146E3,2.2848853E3,1.9242661E3,1.01356006E3,7.4100244E2,2.7430762E2,2.8939178E1,0E0,0E0,0E0,0E0,0E0,0E0,0E0,0E0],"parents":[2147483647,0,0,1,1,2,2,3,3,4,4,5,5,6,6],"right_children":[2,4,6,8,10,12,14,-1,-1,-1,-1,-1,-1,-1,-1],"split_conditions":[2E0,4E0,6E0,1E0,1E0,5E0,1E0,6.7307865E-3,-1.0168751E-2,8.159466E-2,2.767701E-2,-2.7633041E-2,-1.2346878E-2,9.9633485E-3,1.727242E-2],"split_indices":[1,6,6,1,1,6,11,0,0,0,0,0,0,0,0],"split_type":[0,0,0,0,0,0,0,0,0,0,0,0,0,0,0],"sum_hessian":[9.5524234E4,6.724199E4,2.8282248E4,5.866977E4,8.572219E3,1.9667486E4,8.614762E3,3.7073023E4,2.1596748E4,1.12835E3,7.4438687E3,1.26421045E4,7.025383E3,5.072514E3,3.5422473E3],"tree_param":{"num_deleted":"0","num_feature":"12","num_nodes":"15","size_leaf_vector":"1"}},{"base_weights":[-1.6964492E-3,-6.9820285E-2,7.0400333E-1,2.1509025E-2,-3.2272595E-1,1.0380868E0,4.7361314E-1,-6.712554E-3,1.1964341E-2,-2.604206E-2,-8.421521E-3,7.581067E-2,5.8530677E-2,2.1366913E-2,3.1397924E-2],"categories":[],"categories_nodes":[],"categories_segments":[],"categories_sizes":[],"default_left":[0,0,0,0,0,0,0,0,0,0,0,0,0,0,0],"id":6,"left_children":[1,3,5,7,9,11,13,-1,-1,-1,-1,-1,-1,-1,-1],"loss_changes":[4.591772E3,2.0119141E3,6.4670703E2,1.423512E3,4.1993506E2,5.847119E1,2.0839722E1,0E0,0E0,0E0,0E0,0E0,0E0,0E0,0E0],"parents":[2147483647,0,0,1,1,2,2,3,3,4,4,5,5,6,6],"right_children":[2,4,6,8,10,12,14,-1,-1,-1,-1,-1,-1,-1,-1],"split_conditions":[3E0,2E0,2E0,1E0,2E0,1E0,2.862191E-1,-6.712554E-3,1.1964341E-2,-2.604206E-2,-8.421521E-3,7.581067E-2,5.8530677E-2,2.1366913E-2,3.1397924E-2],"split_indices":[0,1,1,0,0,1,7,0,0,0,0,0,0,0,0],"split_type":[0,0,0,0,0,0,0,0,0,0,0,0,0,0,0],"sum_hessian":[9.551071E4,8.710322E4,8.407498E3,6.399445E4,2.3108766E4,3.4300933E3,4.9774043E3,3.6424613E4,2.756984E4,1.5200799E4,7.9079663E3,1.1557872E3,2.2743062E3,1.0087829E3,3.9686213E3],"tree_param":{"num_deleted":"0","num_feature":"12","num_nodes":"15","size_leaf_vector":"1"}},{"base_weights":[-2.0418118E-3,-6.567585E-2,6.4843357E-1,1.01415984E-1,-1.9073491E-1,9.456572E-1,4.4226483E-1,2.8832573E-3,4.0590387E-2,-1.5811458E-2,-7.974345E-4,7.096451E-2,5.2466612E-2,2.4920303E-2,3.1038694E-2],"categories":[],"categories_nodes":[],"categories_segments":[],"categories_sizes":[],"default_left":[0,0,0,0,0,0,0,0,0,0,0,0,0,0,0],"id":7,"left_children":[1,3,5,7,9,11,13,-1,-1,-1,-1,-1,-1,-1,-1],"loss_changes":[3.9521711E3,1.8174243E3,5.2095264E2,1.1309894E3,5.683965E2,6.796973E1,1.162854E1,0E0,0E0,0E0,0E0,0E0,0E0,0E0,0E0],"parents":[2147483647,0,0,1,1,2,2,3,3,4,4,5,5,6,6],"right_children":[2,4,6,8,10,12,14,-1,-1,-1,-1,-1,-1,-1,-1],"split_conditions":[3E0,1E0,2E0,2E0,2E0,1E0,1E0,2.8832573E-3,4.0590387E-2,-1.5811458E-2,-7.974345E-4,7.096451E-2,5.2466612E-2,2.4920303E-2,3.1038694E-2],"split_indices":[0,1,1,0,0,1,5,0,0,0,0,0,0,0,0],"split_type":[0,0,0,0,0,0,0,0,0,0,0,0,0,0,0],"sum_hessian":[9.547863E4,8.697138E4,8.507248E3,3.7229332E4,4.974205E4,3.4827488E3,5.024499E3,3.3867742E4,3.3615918E3,3.654378E4,1.3198268E4,1.1591748E3,2.323574E3,2.9717417E3,2.0527573E3],"tree_param":{"num_deleted":"0","num_feature":"12","num_nodes":"15","size_leaf_vector":"1"}},{"base_weights":[6.725424E-4,-5.9841473E-2,6.14533E-1,-1.0412625E-1,1.2791717E-1,8.7856704E-1,4.3231452E-1,-1.8808573E-3,-1.5041511E-2,3.9130062E-2,-1.745652E-4,6.540448E-2,4.884813E-2,2.1233195E-2,2.9688166E-2],"categories":[],"categories_nodes":[],"categories_segments":[],"categories_sizes":[],"default_left":[0,0,0,0,0,0,0,0,0,0,0,0,0,0,0],"id":8,"left_children":[1,3,5,7,9,11,13,-1,-1,-1,-1,-1,-1,-1,-1],"loss_changes":[3.542724E3,7.2184296E2,4.113562E2,7.175935E2,1.0897035E3,5.5070312E1,2.0984009E1,0E0,0E0,0E0,0E0,0E0,0E0,0E0,0E0],"parents":[2147483647,0,0,1,1,2,2,3,3,4,4,5,5,6,6],"right_children":[2,4,6,8,10,12,14,-1,-1,-1,-1,-1,-1,-1,-1],"split_conditions":[3E0,2E0,6E0,3E0,4E0,5E0,2.951807E-1,-1.8808573E-3,-1.5041511E-2,3.9130062E-2,-1.745652E-4,6.540448E-2,4.884813E-2,2.1233195E-2,2.9688166E-2],"split_indices":[0,0,6,6,6,6,8,0,0,0,0,0,0,0,0],"split_type":[0,0,0,0,0,0,0,0,0,0,0,0,0,0,0],"sum_hessian":[9.536799E4,8.68111E4,8.556887E3,7.024383E4,1.6567273E4,3.4924773E3,5.064409E3,4.581955E4,2.4424281E4,3.4163643E3,1.315091E4,1.1847302E3,2.307747E3,1.7276649E3,3.3367444E3],"tree_param":{"num_deleted":"0","num_feature":"12","num_nodes":"15","size_leaf_vector":"1"}},{"base_weights":[7.4016757E-4,-5.7570707E-2,5.8742267E-1,2.3795044E-2,-2.8636757E-1,8.536895E-1,4.0102413E-1,-5.7835216E-3,1.1014298E-2,-2.324632E-2,-7.477509E-3,6.2824816E-2,4.7978245E-2,2.1232076E-2,2.7765846E-2],"categories":[],"categories_nodes":[],"categories_segments":[],"categories_sizes":[],"default_left":[0,0,0,0,0,0,0,0,0,0,0,0,0,0,0],"id":9,"left_children":[1,3,5,7,9,11,13,-1,-1,-1,-1,-1,-1,-1,-1],"loss_changes":[3.264752E3,1.6159911E3,4.278623E2,1.1530345E3,3.340703E2,4.4511475E1,1.3756714E1,0E0,0E0,0E0,0E0,0E0,0E0,0E0,0E0],"parents":[2147483647,0,0,1,1,2,2,3,3,4,4,5,5,6,6],"right_children":[2,4,6,8,10,12,14,-1,-1,-1,-1,-1,-1,-1,-1],"split_conditions":[3E0,2E0,2E0,1E0,2E0,1E0,1E0,-5.7835216E-3,1.1014298E-2,-2.324632E-2,-7.477509E-3,6.2824816E-2,4.7978245E-2,2.1232076E-2,2.7765846E-2],"split_indices":[0,1,1,0,0,1,10,0,0,0,0,0,0,0,0],"split_type":[0,0,0,0,0,0,0,0,0,0,0,0,0,0,0],"sum_hessian":[9.543078E4,8.680414E4,8.626637E3,6.403325E4,2.2770893E4,3.5508015E3,5.075835E3,3.6361816E4,2.7671434E4,1.4844937E4,7.9259565E3,1.1825125E3,2.368289E3,2.2547317E3,2.8211033E3],"tree_param":{"num_deleted":"0","num_feature":"12","num_nodes":"15","size_leaf_vector":"1"}},{"base_weights":[1.1431986E-3,-5.1820874E-2,5.28214E-1,-1.3723157E-1,2.9843133E-2,7.6629865E-1,3.623207E-1,-1.2484419E-3,-1.8283393E-2,1.0903278E-2,-7.494677E-3,5.6945127E-2,4.2905185E-2,2.1093888E-2,2.6562102E-2],"categories":[],"categories_nodes":[],"categories_segments":[],"categories_sizes":[],"default_left":[0,0,0,0,0,0,0,0,0,0,0,0,0,0,0],"id":10,"left_children":[1,3,5,7,9,11,13,-1,-1,-1,-1,-1,-1,-1,-1],"loss_changes":[2.65821E3,6.035314E2,3.431433E2,7.8054553E2,9.731802E2,3.973828E1,7.35437E0,0E0,0E0,0E0,0E0,0E0,0E0,0E0,0E0],"parents":[2147483647,0,0,1,1,2,2,3,3,4,4,5,5,6,6],"right_children":[2,4,6,8,10,12,14,-1,-1,-1,-1,-1,-1,-1,-1],"split_conditions":[3E0,1E0,6E0,2E0,4E0,5E0,2E0,-1.2484419E-3,-1.8283393E-2,1.0903278E-2,-7.494677E-3,5.6945127E-2,4.2905185E-2,2.1093888E-2,2.6562102E-2],"split_indices":[0,0,6,6,6,6,4,0,0,0,0,0,0,0,0],"split_type":[0,0,0,0,0,0,0,0,0,0,0,0,0,0,0],"sum_hessian":[9.522039E4,8.652645E4,8.693933E3,4.2292703E4,4.423375E4,3.568672E3,5.1252607E3,2.4265117E4,1.8027588E4,2.24686E4,2.176515E4,1.1691593E3,2.399513E3,3.8417788E3,1.2834818E3],"tree_param":{"num_deleted":"0","num_feature":"12","num_nodes":"15","size_leaf_vector":"1"}},{"base_weights":[-9.5631025E-4,-5.0165184E-2,4.841487E-1,2.2935875E-2,-2.5820032E-1,7.089038E-1,3.2959655E-1,-5.121113E-3,9.91403E-3,-2.1055216E-2,-6.5919994E-3,5.2366387E-2,3.9749578E-2,1.5374594E-2,2.299818E-2],"categories":[],"categories_nodes":[],"categories_segments":[],"categories_sizes":[],"default_left":[0,0,0,0,0,0,0,0,0,0,0,0,0,0,0],"id":11,"left_children":[1,3,5,7,9,11,13,-1,-1,-1,-1,-1,-1,-1,-1],"loss_changes":[2.2712358E3,1.3136647E3,3.0414526E2,9.236469E2,2.7746277E2,3.231482E1,1.7414368E1,0E0,0E0,0E0,0E0,0E0,0E0,0E0,0E0],"parents":[2147483647,0,0,1,1,2,2,3,3,4,4,5,5,6,6],"right_children":[2,4,6,8,10,12,14,-1,-1,-1,-1,-1,-1,-1,-1],"split_conditions":[3E0,2E0,2E0,1E0,2E0,1E0,2.951807E-1,-5.121113E-3,9.91403E-3,-2.1055216E-2,-6.5919994E-3,5.2366387E-2,3.9749578E-2,1.5374594E-2,2.299818E-2],"split_indices":[0,1,1,0,0,1,8,0,0,0,0,0,0,0,0],"split_type":[0,0,0,0,0,0,0,0,0,0,0,0,0,0,0],"sum_hessian":[9.5142336E4,8.63808E4,8.761539E3,6.3920715E4,2.2460084E4,3.568507E3,5.193032E3,3.610216E4,2.7818555E4,1.4626798E4,7.8332866E3,1.1871665E3,2.3813406E3,1.7456924E3,3.4473396E3],"tree_param":{"num_deleted":"0","num_feature":"12","num_nodes":"15","size_leaf_vector":"1"}},{"base_weights":[4.8279198E-4,1.132139E-1,-7.6486446E-2,4.5186974E-2,6.065646E-1,-1.5210609E-1,8.58766E-2,-7.1517215E-4,1.1623439E-2,3.32178E-2,5.0471462E-2,-4.500497E-3,-2.043216E-2,3.755153E-2,3.7001853E-4],"categories":[],"categories_nodes":[],"categories_segments":[],"categories_sizes":[],"default_left":[0,0,0,0,0,0,0,0,0,0,0,0,0,0,0],"id":12,"left_children":[1,3,5,7,9,11,13,-1,-1,-1,-1,-1,-1,-1,-1],"loss_changes":[8.252729E2,1.295129E3,6.9397266E2,2.7365106E2,6.830249E1,5.439847E2,7.45845E2,0E0,0E0,0E0,0E0,0E0,0E0,0E0,0E0],"parents":[2147483647,0,0,1,1,2,2,3,3,4,4,5,5,6,6],"right_children":[2,4,6,8,10,12,14,-1,-1,-1,-1,-1,-1,-1,-1],"split_conditions":[1E0,3E0,5E0,2E0,4E0,2E0,2E0,-7.1517215E-4,1.1623439E-2,3.32178E-2,5.0471462E-2,-4.500497E-3,-2.043216E-2,3.755153E-2,3.7001853E-4],"split_indices":[1,6,6,6,6,1,1,0,0,0,0,0,0,0,0],"split_type":[0,0,0,0,0,0,0,0,0,0,0,0,0,0,0],"sum_hessian":[9.51103E4,3.8589973E4,5.652033E4,3.3914656E4,4.6753174E3,3.8560883E4,1.7959443E4,2.4247451E4,9.667204E3,3.4866772E3,1.18864E3,2.662477E4,1.1936114E4,2.3926587E3,1.5566785E4],"tree_param":{"num_deleted":"0","num_feature":"12","num_nodes":"15","size_leaf_vector":"1"}},{"base_weights":[-3.6886611E-3,-4.9169946E-2,4.4267887E-1,-8.513351E-2,1.0139972E-1,6.195034E-1,3.1906527E-1,-1.5761643E-3,-1.2380368E-2,1.8098336E-2,-6.8908874E-3,4.6799093E-2,3.4228887E-2,1.6928399E-2,2.2064948E-2],"categories":[],"categories_nodes":[],"categories_segments":[],"categories_sizes":[],"default_left":[0,0,0,0,0,0,0,0,0,0,0,0,0,0,0],"id":13,"left_children":[1,3,5,7,9,11,13,-1,-1,-1,-1,-1,-1,-1,-1],"loss_changes":[1.9262996E3,4.6630194E2,1.915846E2,4.7531598E2,6.720327E2,3.252771E1,8.651794E0,0E0,0E0,0E0,0E0,0E0,0E0,0E0,0E0],"parents":[2147483647,0,0,1,1,2,2,3,3,4,4,5,5,6,6],"right_children":[2,4,6,8,10,12,14,-1,-1,-1,-1,-1,-1,-1,-1],"split_conditions":[3E0,2E0,6E0,3E0,5E0,5E0,1E0,-1.5761643E-3,-1.2380368E-2,1.8098336E-2,-6.8908874E-3,4.6799093E-2,3.4228887E-2,1.6928399E-2,2.2064948E-2],"split_indices":[0,0,6,6,6,6,10,0,0,0,0,0,0,0,0],"split_type":[0,0,0,0,0,0,0,0,0,0,0,0,0,0,0],"sum_hessian":[9.4883125E4,8.6110086E4,8.77304E3,6.950844E4,1.6601652E4,3.6079688E3,5.1650713E3,4.5685355E4,2.382308E4,8.755218E3,7.8464346E3,1.1985718E3,2.409397E3,2.2955227E3,2.8695486E3],"tree_param":{"num_deleted":"0","num_feature":"12","num_nodes":"15","size_leaf_vector":"1"}},{"base_weights":[6.5110315E-4,-4.134532E-2,4.104727E-1,-2.5447312E-1,-1.134766E-2,5.8145195E-1,2.929546E-1,-2.8395325E-2,-1.16258785E-2,-4.259185E-3,4.317421E-3,4.3966476E-2,3.2179322E-2,1.7038217E-2,2.4702396E-2],"categories":[],"categories_nodes":[],"categories_segments":[],"categories_sizes":[],"default_left":[0,0,0,0,0,0,0,0,0,0,0,0,0,0,0],"id":14,"left_children":[1,3,5,7,9,11,13,-1,-1,-1,-1,-1,-1,-1,-1],"loss_changes":[1.6349028E3,5.5086017E2,1.7724109E2,1.4479932E2,3.5066196E2,2.8309448E1,9.930359E0,0E0,0E0,0E0,0E0,0E0,0E0,0E0,0E0],"parents":[2147483647,0,0,1,1,2,2,3,3,4,4,5,5,6,6],"right_children":[2,4,6,8,10,12,14,-1,-1,-1,-1,-1,-1,-1,-1],"split_conditions":[3E0,2.5714287E-1,6E0,1.4634146E-1,1E0,5E0,3.8344595E-1,-2.8395325E-2,-1.16258785E-2,-4.259185E-3,4.317421E-3,4.3966476E-2,3.2179322E-2,1.7038217E-2,2.4702396E-2],"split_indices":[0,7,6,7,11,6,7,0,0,0,0,0,0,0,0],"split_type":[0,0,0,0,0,0,0,0,0,0,0,0,0,0,0],"sum_hessian":[9.498953E4,8.616108E4,8.828448E3,1.062993E4,7.553115E4,3.5946208E3,5.2338276E3,2.632014E3,7.9979155E3,4.421924E4,3.1311912E4,1.1791078E3,2.415513E3,4.4663022E3,7.6752527E2],"tree_param":{"num_deleted":"0","num_feature":"12","num_nodes":"15","size_leaf_vector":"1"}},{"base_weights":[6.32356E-4,-4.0419083E-2,3.9761174E-1,-1.6043045E-1,1.2025405E-2,5.634239E-1,2.8447422E-1,-2.6807243E-2,-7.866277E-3,-3.6364526E-3,4.8543494E-3,3.0503077E-2,4.036861E-2,1.4716441E-2,2.18153E-2],"categories":[],"categories_nodes":[],"categories_segments":[],"categories_sizes":[],"default_left":[0,0,0,0,0,0,0,0,0,0,0,0,0,0,0],"id":15,"left_children":[1,3,5,7,9,11,13,-1,-1,-1,-1,-1,-1,-1,-1],"loss_changes":[1.5465516E3,5.413214E2,1.666853E2,2.3871173E2,2.802381E2,2.2266357E1,1.670581E1,0E0,0E0,0E0,0E0,0E0,0E0,0E0,0E0],"parents":[2147483647,0,0,1,1,2,2,3,3,4,4,5,5,6,6],"right_children":[2,4,6,8,10,12,14,-1,-1,-1,-1,-1,-1,-1,-1],"split_conditions":[3E0,3.0177516E-1,6E0,1.6666667E-1,1E0,1E0,1E0,-2.6807243E-2,-7.866277E-3,-3.6364526E-3,4.8543494E-3,3.0503077E-2,4.036861E-2,1.4716441E-2,2.18153E-2],"split_indices":[0,7,6,7,0,11,11,0,0,0,0,0,0,0,0],"split_type":[0,0,0,0,0,0,0,0,0,0,0,0,0,0,0],"sum_hessian":[9.489843E4,8.600554E4,8.892892E3,2.6153988E4,5.985155E4,3.6052002E3,5.2876914E3,2.8739785E3,2.328001E4,2.8961748E4,3.08898E4,1.9878271E3,1.6173732E3,3.1121252E3,2.175566E3],"tree_param":{"num_deleted":"0","num_feature":"12","num_nodes":"15","size_leaf_vector":"1"}},{"base_weights":[-9.950382E-4,-1.317506E-1,3.747367E-2,-3.2564276E-1,-9.020548E-2,-1.6001647E-2,1.1266854E-1,-2.6164442E-2,-9.468009E-3,-9.072746E-3,-8.1393117E-4,-3.2372845E-3,4.8512537E-3,1.1888585E-2,5.3604465E-4],"categories":[],"categories_nodes":[],"categories_segments":[],"categories_sizes":[],"default_left":[0,0,0,0,0,0,0,0,0,0,0,0,0,0,0],"id":16,"left_children":[1,3,5,7,9,11,13,-1,-1,-1,-1,-1,-1,-1,-1],"loss_changes":[4.7712717E2,1.7366733E2,2.94719E2,6.3295776E1,7.6795135E1,1.461294E2,2.504693E2,0E0,0E0,0E0,0E0,0E0,0E0,0E0,0E0],"parents":[2147483647,0,0,1,1,2,2,3,3,4,4,5,5,6,6],"right_children":[2,4,6,8,10,12,14,-1,-1,-1,-1,-1,-1,-1,-1],"split_conditions":[2.8834355E-1,1.875E-1,1E0,6E0,1E0,3.4246576E-1,2E0,-2.6164442E-2,-9.468009E-3,-9.072746E-3,-8.1393117E-4,-3.2372845E-3,4.8512537E-3,1.1888585E-2,5.3604465E-4],"split_indices":[7,7,11,3,11,8,2,0,0,0,0,0,0,0,0],"split_type":[0,0,0,0,0,0,0,0,0,0,0,0,0,0,0],"sum_hessian":[9.485435E4,2.1562104E4,7.329224E4,3.8036287E3,1.7758475E4,4.2832453E4,3.0459793E4,2.442505E3,1.361124E3,1.0277383E4,7.4810913E3,3.0944525E4,1.1887928E4,1.7307375E4,1.3152418E4],"tree_param":{"num_deleted":"0","num_feature":"12","num_nodes":"15","size_leaf_vector":"1"}},{"base_weights":[2.5308386E-3,-6.971506E-2,1.9901152E-1,5.1962867E-2,-1.858564E-1,3.5212556E-1,5.3908203E-2,1.2375836E-4,1.0918026E-2,-7.198908E-3,-1.7931005E-2,3.1572446E-2,1.588568E-2,-5.549991E-3,1.6689058E-2],"categories":[],"categories_nodes":[],"categories_segments":[],"categories_sizes":[],"default_left":[0,0,0,0,0,0,0,0,0,0,0,0,0,0,0],"id":17,"left_children":[1,3,5,7,9,11,13,-1,-1,-1,-1,-1,-1,-1,-1],"loss_changes":[1.3439967E3,9.7831226E2,5.6551685E2,2.096441E2,2.5522803E2,1.8646289E2,4.034279E2,0E0,0E0,0E0,0E0,0E0,0E0,0E0,0E0],"parents":[2147483647,0,0,1,1,2,2,3,3,4,4,5,5,6,6],"right_children":[2,4,6,8,10,12,14,-1,-1,-1,-1,-1,-1,-1,-1],"split_conditions":[2E0,1E0,2E0,1E0,2E0,1E0,3E0,1.2375836E-4,1.0918026E-2,-7.198908E-3,-1.7931005E-2,3.1572446E-2,1.588568E-2,-5.549991E-3,1.6689058E-2],"split_indices":[0,1,1,0,1,1,0,0,0,0,0,0,0,0,0],"split_type":[0,0,0,0,0,0,0,0,0,0,0,0,0,0,0],"sum_hessian":[9.467954E4,6.922585E4,2.5453684E4,3.3807387E4,3.541847E4,1.2384279E4,1.3069404E4,2.4103516E4,9.703871E3,2.114163E4,1.4276836E4,4.6959434E3,7.688336E3,7.84357E3,5.225835E3],"tree_param":{"num_deleted":"0","num_feature":"12","num_nodes":"15","size_leaf_vector":"1"}},{"base_weights":[-9.839915E-4,-3.535551E-2,3.328911E-1,2.6282448E-2,-2.1464601E-1,4.9679315E-1,2.2090699E-1,-3.7766073E-3,8.579174E-3,-2.2839436E-2,-9.892485E-3,3.8380202E-2,2.7044281E-2,1.07482625E-2,1.6047366E-2],"categories":[],"categories_nodes":[],"categories_segments":[],"categories_sizes":[],"default_left":[0,0,0,0,0,0,0,0,0,0,0,0,0,0,0],"id":18,"left_children":[1,3,5,7,9,11,13,-1,-1,-1,-1,-1,-1,-1,-1],"loss_changes":[1.0877184E3,9.4970135E2,1.6227118E2,6.2483563E2,1.8615771E2,2.6334778E1,9.429504E0,0E0,0E0,0E0,0E0,0E0,0E0,0E0,0E0],"parents":[2147483647,0,0,1,1,2,2,3,3,4,4,5,5,6,6],"right_children":[2,4,6,8,10,12,14,-1,-1,-1,-1,-1,-1,-1,-1],"split_conditions":[3E0,2E0,2E0,1E0,1E0,1E0,1E0,-3.7766073E-3,8.579174E-3,-2.2839436E-2,-9.892485E-3,3.8380202E-2,2.7044281E-2,1.07482625E-2,1.6047366E-2],"split_indices":[0,1,1,0,0,1,10,0,0,0,0,0,0,0,0],"split_type":[0,0,0,0,0,0,0,0,0,0,0,0,0,0,0],"sum_hessian":[9.478171E4,8.593576E4,8.845954E3,6.3951008E4,2.1984746E4,3.5892395E3,5.2567144E3,3.5968684E4,2.7982322E4,5.802662E3,1.6182085E4,1.1883339E3,2.4009058E3,2.3322046E3,2.9245098E3],"tree_param":{"num_deleted":"0","num_feature":"12","num_nodes":"15","size_leaf_vector":"1"}},{"base_weights":[5.3852785E-4,-1.01689614E-1,4.425524E-2,-3.5181352E-1,-7.161879E-2,-5.7511744E-3,1.11060195E-1,-2.419654E-2,1.121498E-2,-7.5099086E-3,-2.4643133E-4,-3.0088152E-3,3.5245805E-3,3.6249396E-3,1.1244895E-2],"categories":[],"categories_nodes":[],"categories_segments":[],"categories_sizes":[],"default_left":[0,0,0,0,0,0,0,0,0,0,0,0,0,0,0],"id":19,"left_children":[1,3,5,7,9,11,13,-1,-1,-1,-1,-1,-1,-1,-1],"loss_changes":[4.2232288E2,2.1287988E2,2.2112807E2,6.2168915E1,8.458899E1,1.01338844E2,1.047435E2,0E0,0E0,0E0,0E0,0E0,0E0,0E0,0E0],"parents":[2147483647,0,0,1,1,2,2,3,3,4,4,5,5,6,6],"right_children":[2,4,6,8,10,12,14,-1,-1,-1,-1,-1,-1,-1,-1],"split_conditions":[3.0177516E-1,1.6666667E-1,3.218391E-1,4.4E-1,1E0,1E0,1E0,-2.419654E-2,1.121498E-2,-7.5099086E-3,-2.4643133E-4,-3.0088152E-3,3.5245805E-3,3.6249396E-3,1.1244895E-2],"split_indices":[7,7,8,8,5,5,5,0,0,0,0,0,0,0,0],"split_type":[0,0,0,0,0,0,0,0,0,0,0,0,0,0,0],"sum_hessian":[9.449687E4,2.8305447E4,6.619142E4,3.0366255E3,2.5268822E4,3.7855695E4,2.8335723E4,2.8327893E3,2.0383618E2,1.4592714E4,1.0676108E4,2.2488645E4,1.5367053E4,1.6206234E4,1.2129487E4],"tree_param":{"num_deleted":"0","num_feature":"12","num_nodes":"15","size_leaf_vector":"1"}},{"base_weights":[-1.2362773E-3,9.818791E-2,-6.971869E-2,1.6983815E-2,1.595859E-1,-2.4090792E-1,-4.3031715E-2,-4.1693156E-3,5.483023E-3,6.6650244E-3,1.4252995E-2,-2.8001541E-2,-1.1910148E-2,3.2822165E-4,-5.8548353E-3],"categories":[],"categories_nodes":[],"categories_segments":[],"categories_sizes":[],"default_left":[0,0,0,0,0,0,0,0,0,0,0,0,0,0,0],"id":20,"left_children":[1,3,5,7,9,11,13,-1,-1,-1,-1,-1,-1,-1,-1],"loss_changes":[6.4411475E2,1.9236649E2,2.559025E2,9.9954865E1,8.04079E1,7.764206E1,1.2033736E2,0E0,0E0,0E0,0E0,0E0,0E0,0E0,0E0],"parents":[2147483647,0,0,1,1,2,2,3,3,4,4,5,5,6,6],"right_children":[2,4,6,8,10,12,14,-1,-1,-1,-1,-1,-1,-1,-1],"split_conditions":[1E0,3.2047477E-1,2.631579E-1,3.1007752E-1,1E0,1.2962963E-1,2E0,-4.1693156E-3,5.483023E-3,6.6650244E-3,1.4252995E-2,-2.8001541E-2,-1.1910148E-2,3.2822165E-4,-5.8548353E-3],"split_indices":[1,7,7,8,5,7,1,0,0,0,0,0,0,0,0],"split_type":[0,0,0,0,0,0,0,0,0,0,0,0,0,0,0],"sum_hessian":[9.459821E4,3.8582664E4,5.6015547E4,1.6612496E4,2.197017E4,7.553568E3,4.8461977E4,7.6241333E3,8.988362E3,1.2616057E4,9.354114E3,1.4203076E3,6.1332603E3,2.4974729E4,2.348725E4],"tree_param":{"num_deleted":"0","num_feature":"12","num_nodes":"15","size_leaf_vector":"1"}},{"base_weights":[7.7098416E-4,-6.462073E-2,1.7765546E-1,4.3716405E-2,-1.6944344E-1,4.4541708E-1,1.1686119E-1,2.3217814E-5,9.355891E-3,-6.8182033E-3,-1.6067257E-2,2.369237E-2,3.441963E-2,5.4227986E-4,1.8599706E-2],"categories":[],"categories_nodes":[],"categories_segments":[],"categories_sizes":[],"default_left":[0,0,0,0,0,0,0,0,0,0,0,0,0,0,0],"id":21,"left_children":[1,3,5,7,9,11,13,-1,-1,-1,-1,-1,-1,-1,-1],"loss_changes":[1.0935559E3,7.8387054E2,4.1533362E2,1.5765002E2,1.8709674E2,3.2580933E1,4.1165198E2,0E0,0E0,0E0,0E0,0E0,0E0,0E0,0E0],"parents":[2147483647,0,0,1,1,2,2,3,3,4,4,5,5,6,6],"right_children":[2,4,6,8,10,12,14,-1,-1,-1,-1,-1,-1,-1,-1],"split_conditions":[2E0,1E0,1E0,1E0,2E0,3.4920636E-1,3E0,2.3217814E-5,9.355891E-3,-6.8182033E-3,-1.6067257E-2,2.369237E-2,3.441963E-2,5.4227986E-4,1.8599706E-2],"split_indices":[0,1,1,0,1,7,0,0,0,0,0,0,0,0,0],"split_type":[0,0,0,0,0,0,0,0,0,0,0,0,0,0,0],"sum_hessian":[9.454082E4,6.902418E4,2.5516643E4,3.3943367E4,3.5080816E4,4.720296E3,2.0796346E4,2.416873E4,9.774636E3,2.1088996E4,1.3991819E4,2.9943745E3,1.7259213E3,1.3075582E4,7.720763E3],"tree_param":{"num_deleted":"0","num_feature":"12","num_nodes":"15","size_leaf_vector":"1"}},{"base_weights":[-4.1486975E-3,-3.6011282E-2,3.0361417E-1,-9.655986E-2,2.088763E-2,4.342465E-1,2.1447788E-1,-5.867235E-4,-1.3514058E-2,6.9219326E-3,-4.7142426E-3,3.357748E-2,2.3760408E-2,1.1549691E-2,1.8581614E-2],"categories":[],"categories_nodes":[],"categories_segments":[],"categories_sizes":[],"default_left":[0,0,0,0,0,0,0,0,0,0,0,0,0,0,0],"id":22,"left_children":[1,3,5,7,9,11,13,-1,-1,-1,-1,-1,-1,-1,-1],"loss_changes":[9.263124E2,2.94908E2,1.0309888E2,4.3837646E2,3.8805606E2,1.9476318E1,1.2613388E1,0E0,0E0,0E0,0E0,0E0,0E0,0E0,0E0],"parents":[2147483647,0,0,1,1,2,2,3,3,4,4,5,5,6,6],"right_children":[2,4,6,8,10,12,14,-1,-1,-1,-1,-1,-1,-1,-1],"split_conditions":[3E0,1E0,6E0,2E0,4E0,5E0,2E0,-5.867235E-4,-1.3514058E-2,6.9219326E-3,-4.7142426E-3,3.357748E-2,2.3760408E-2,1.1549691E-2,1.8581614E-2],"split_indices":[0,0,6,6,6,6,4,0,0,0,0,0,0,0,0],"split_type":[0,0,0,0,0,0,0,0,0,0,0,0,0,0,0],"sum_hessian":[9.446056E4,8.5599375E4,8.86119E3,4.146935E4,4.413002E4,3.5924531E3,5.268738E3,2.4143797E4,1.7325557E4,2.2790947E4,2.1339074E4,1.156202E3,2.4362512E3,3.959571E3,1.3091666E3],"tree_param":{"num_deleted":"0","num_feature":"12","num_nodes":"15","size_leaf_vector":"1"}},{"base_weights":[-2.9067432E-3,-5.632239E-2,7.093508E-2,-2.8174666E-1,-3.982683E-2,2.9162925E-2,1.457139E-1,-1.9820005E-2,5.107281E-3,-5.4928106E-3,1.7055334E-3,-5.8999436E-4,5.3506396E-3,5.561202E-3,1.2317993E-2],"categories":[],"categories_nodes":[],"categories_segments":[],"categories_sizes":[],"default_left":[0,0,0,0,0,0,0,0,0,0,0,0,0,0,0],"id":23,"left_children":[1,3,5,7,9,11,13,-1,-1,-1,-1,-1,-1,-1,-1],"loss_changes":[3.7253726E2,2.0377998E2,1.23832535E2,5.1551178E1,1.6762836E2,5.619876E1,4.2119385E1,0E0,0E0,0E0,0E0,0E0,0E0,0E0,0E0],"parents":[2147483647,0,0,1,1,2,2,3,3,4,4,5,5,6,6],"right_children":[2,4,6,8,10,12,14,-1,-1,-1,-1,-1,-1,-1,-1],"split_conditions":[3.3828998E-1,1.875E-1,3.3333334E-1,4.181818E-1,1E0,1E0,1E0,-1.9820005E-2,5.107281E-3,-5.4928106E-3,1.7055334E-3,-5.8999436E-4,5.3506396E-3,5.561202E-3,1.2317993E-2],"split_indices":[7,7,8,8,5,5,10,0,0,0,0,0,0,0,0],"split_type":[0,0,0,0,0,0,0,0,0,0,0,0,0,0,0],"sum_hessian":[9.4447305E4,5.4803688E4,3.9643617E4,3.7357512E3,5.1067938E4,2.5436139E4,1.4207478E4,3.3839197E3,3.5183154E2,2.962084E4,2.1447098E4,1.5167182E4,1.0268957E4,6.9023735E3,7.3051045E3],"tree_param":{"num_deleted":"0","num_feature":"12","num_nodes":"15","size_leaf_vector":"1"}},{"base_weights":[-2.0177886E-3,-1.06664106E-1,2.8428588E-2,-3.157532E-1,-8.121686E-2,-1.8080192E-2,9.016771E-2,-2.1360334E-2,1.5608995E-2,-9.206763E-3,-2.1776117E-3,-3.4504032E-3,2.2515727E-3,2.691406E-3,9.476948E-3],"categories":[],"categories_nodes":[],"categories_segments":[],"categories_sizes":[],"default_left":[0,0,0,0,0,0,0,0,0,0,0,0,0,0,0],"id":24,"left_children":[1,3,5,7,9,11,13,-1,-1,-1,-1,-1,-1,-1,-1],"loss_changes":[3.0079672E2,1.1318555E2,2.0999292E2,3.7682724E1,5.8808197E1,8.521422E1,9.206506E1,0E0,0E0,0E0,0E0,0E0,0E0,0E0,0E0],"parents":[2147483647,0,0,1,1,2,2,3,3,4,4,5,5,6,6],"right_children":[2,4,6,8,10,12,14,-1,-1,-1,-1,-1,-1,-1,-1],"split_conditions":[2.8834355E-1,1.2962963E-1,3.218391E-1,4.8E-1,3.031496E-1,1E0,1E0,-2.1360334E-2,1.5608995E-2,-9.206763E-3,-2.1776117E-3,-3.4504032E-3,2.2515727E-3,2.691406E-3,9.476948E-3],"split_indices":[7,7,8,8,8,5,5,0,0,0,0,0,0,0,0],"split_type":[0,0,0,0,0,0,0,0,0,0,0,0,0,0,0],"sum_hessian":[9.440707E4,2.1276332E4,7.313074E4,2.3072495E3,1.8969084E4,4.1710473E4,3.1420266E4,2.19654E3,1.1070938E2,7.713927E3,1.1255156E4,2.467202E4,1.7038453E4,1.7992596E4,1.3427672E4],"tree_param":{"num_deleted":"0","num_feature":"12","num_nodes":"15","size_leaf_vector":"1"}},{"base_weights":[-1.8649733E-3,-6.230351E-2,1.613964E-1,-1.5708856E-2,-1.531671E-1,9.399846E-2,2.87142E-1,-3.4275427E-3,7.935105E-3,-1.9742431E-2,-6.2155575E-3,2.3239061E-2,1.0525791E-3,2.5455272E-2,1.2698978E-2],"categories":[],"categories_nodes":[],"categories_segments":[],"categories_sizes":[],"default_left":[0,0,0,0,0,0,0,0,0,0,0,0,0,0,0],"id":25,"left_children":[1,3,5,7,9,11,13,-1,-1,-1,-1,-1,-1,-1,-1],"loss_changes":[9.306473E2,2.914255E2,2.1593396E2,2.5864746E2,2.0401025E2,3.5878528E2,9.024414E1,0E0,0E0,0E0,0E0,0E0,0E0,0E0,0E0],"parents":[2147483647,0,0,1,1,2,2,3,3,4,4,5,5,6,6],"right_children":[2,4,6,8,10,12,14,-1,-1,-1,-1,-1,-1,-1,-1],"split_conditions":[2E0,3E0,3E0,1E0,1E0,4E0,6E0,-3.4275427E-3,7.935105E-3,-1.9742431E-2,-6.2155575E-3,2.3239061E-2,1.0525791E-3,2.5455272E-2,1.2698978E-2],"split_indices":[0,6,0,0,0,6,6,0,0,0,0,0,0,0,0],"split_type":[0,0,0,0,0,0,0,0,0,0,0,0,0,0,0],"sum_hessian":[9.431449E4,6.883335E4,2.548114E4,4.550147E4,2.3331883E4,1.6590568E4,8.890572E3,3.5677336E4,9.824135E3,5.6608135E3,1.7671068E4,3.5708835E3,1.3019685E4,3.5579126E3,5.332659E3],"tree_param":{"num_deleted":"0","num_feature":"12","num_nodes":"15","size_leaf_vector":"1"}},{"base_weights":[3.316967E-3,-4.5251377E-2,6.4108044E-2,-2.4013922E-1,-3.059016E-2,1.4001015E-2,1.0978258E-1,-1.9204538E-2,-7.3014647E-3,-4.505744E-3,1.6867963E-3,-4.451816E-3,2.5601373E-3,6.4442474E-3,2.4327803E-2],"categories":[],"categories_nodes":[],"categories_segments":[],"categories_sizes":[],"default_left":[0,0,0,0,0,0,0,0,0,0,0,0,0,0,0],"id":26,"left_children":[1,3,5,7,9,11,13,-1,-1,-1,-1,-1,-1,-1,-1],"loss_changes":[2.7817844E2,1.4963998E2,9.576196E1,3.11568E1,1.1842919E2,4.6710556E1,3.621808E1,0E0,0E0,0E0,0E0,0E0,0E0,0E0,0E0],"parents":[2147483647,0,0,1,1,2,2,3,3,4,4,5,5,6,6],"right_children":[2,4,6,8,10,12,14,-1,-1,-1,-1,-1,-1,-1,-1],"split_conditions":[3.3510637E-1,1.875E-1,1E0,6E0,1E0,-1E0,3E0,-1.9204538E-2,-7.3014647E-3,-4.505744E-3,1.6867963E-3,-4.451816E-3,2.5601373E-3,6.4442474E-3,2.4327803E-2],"split_indices":[7,7,10,3,5,4,5,0,0,0,0,0,0,0,0],"split_type":[0,0,0,0,0,0,0,0,0,0,0,0,0,0,0],"sum_hessian":[9.421525E4,5.2372824E4,4.184242E4,3.6632175E3,4.870961E4,1.9953662E4,2.188876E4,2.3348784E3,1.3283391E3,2.8189084E4,2.0520523E4,4.81421E3,1.5139451E4,2.1445105E4,4.4365576E2],"tree_param":{"num_deleted":"0","num_feature":"12","num_nodes":"15","size_leaf_vector":"1"}},{"base_weights":[2.714593E-4,-4.6442486E-2,5.8640238E-2,-2.451112E-1,-3.1592898E-2,1.313294E-2,1.00106254E-1,-2.06282E-2,-5.54415E-3,-3.3233215E-3,5.217673E-3,3.407143E-3,-2.2691533E-3,8.52701E-3,1.2685711E-3],"categories":[],"categories_nodes":[],"categories_segments":[],"categories_sizes":[],"default_left":[0,0,0,0,0,0,0,0,0,0,0,0,0,0,0],"id":27,"left_children":[1,3,5,7,9,11,13,-1,-1,-1,-1,-1,-1,-1,-1],"loss_changes":[2.5689575E2,1.543836E2,7.903348E1,4.957756E1,1.2398125E2,4.1520184E1,6.5278656E1,0E0,0E0,0E0,0E0,0E0,0E0,0E0,0E0],"parents":[2147483647,0,0,1,1,2,2,3,3,4,4,5,5,6,6],"right_children":[2,4,6,8,10,12,14,-1,-1,-1,-1,-1,-1,-1,-1],"split_conditions":[3.3510637E-1,1.875E-1,1E0,6E0,3E0,6E0,2E0,-2.06282E-2,-5.54415E-3,-3.3233215E-3,5.217673E-3,3.407143E-3,-2.2691533E-3,8.52701E-3,1.2685711E-3],"split_indices":[7,7,10,3,11,3,2,0,0,0,0,0,0,0,0],"split_type":[0,0,0,0,0,0,0,0,0,0,0,0,0,0,0],"sum_hessian":[9.421511E4,5.2332418E4,4.1882695E4,3.6384917E3,4.8693926E4,1.9968918E4,2.1913775E4,2.3283535E3,1.3101381E3,4.0916867E4,7.7770596E3,1.0847717E4,9.121202E3,1.4911325E4,7.002449E3],"tree_param":{"num_deleted":"0","num_feature":"12","num_nodes":"15","size_leaf_vector":"1"}},{"base_weights":[4.5836237E-3,-5.283412E-2,1.5932119E-1,-7.5626355E-3,-1.4181197E-1,9.588142E-2,2.7753276E-1,-2.8669506E-3,8.25295E-3,-1.7769797E-2,-5.9424257E-3,2.2674093E-2,1.2850479E-3,2.3710575E-2,1.2805849E-2],"categories":[],"categories_nodes":[],"categories_segments":[],"categories_sizes":[],"default_left":[0,0,0,0,0,0,0,0,0,0,0,0,0,0,0],"id":28,"left_children":[1,3,5,7,9,11,13,-1,-1,-1,-1,-1,-1,-1,-1],"loss_changes":[8.3774963E2,2.770254E2,1.9134875E2,2.4792114E2,1.5433325E2,3.367235E2,6.6270386E1,0E0,0E0,0E0,0E0,0E0,0E0,0E0,0E0],"parents":[2147483647,0,0,1,1,2,2,3,3,4,4,5,5,6,6],"right_children":[2,4,6,8,10,12,14,-1,-1,-1,-1,-1,-1,-1,-1],"split_conditions":[2E0,3E0,3E0,1E0,1E0,4E0,6E0,-2.8669506E-3,8.25295E-3,-1.7769797E-2,-5.9424257E-3,2.2674093E-2,1.2850479E-3,2.3710575E-2,1.2805849E-2],"split_indices":[0,6,0,0,0,6,6,0,0,0,0,0,0,0,0],"split_type":[0,0,0,0,0,0,0,0,0,0,0,0,0,0,0],"sum_hessian":[9.4289516E4,6.877147E4,2.5518049E4,4.558111E4,2.3190357E4,1.6607326E4,8.910724E3,3.5752188E4,9.828922E3,5.589962E3,1.7600396E4,3.6179417E3,1.2989384E4,3.5973079E3,5.3134155E3],"tree_param":{"num_deleted":"0","num_feature":"12","num_nodes":"15","size_leaf_vector":"1"}},{"base_weights":[2.7088174E-3,-4.968023E-2,1.4346531E-1,3.9028917E-2,-1.3664508E-1,2.6512304E-1,2.7025932E-2,-4.835747E-4,6.3229003E-3,-5.3343726E-3,-1.3281474E-2,2.2985315E-2,1.2400774E-2,-4.7474126E-3,1.1019927E-2],"categories":[],"categories_nodes":[],"categories_segments":[],"categories_sizes":[],"default_left":[0,0,0,0,0,0,0,0,0,0,0,0,0,0,0],"id":29,"left_children":[1,3,5,7,9,11,13,-1,-1,-1,-1,-1,-1,-1,-1],"loss_changes":[6.9409436E2,5.2918823E2,3.6165662E2,1.0007474E2,1.3593329E2,8.577136E1,2.0363937E2,0E0,0E0,0E0,0E0,0E0,0E0,0E0,0E0],"parents":[2147483647,0,0,1,1,2,2,3,3,4,4,5,5,6,6],"right_children":[2,4,6,8,10,12,14,-1,-1,-1,-1,-1,-1,-1,-1],"split_conditions":[2E0,1E0,2E0,1E0,2E0,1E0,3E0,-4.835747E-4,6.3229003E-3,-5.3343726E-3,-1.3281474E-2,2.2985315E-2,1.2400774E-2,-4.7474126E-3,1.1019927E-2],"split_indices":[0,1,1,5,1,1,0,0,0,0,0,0,0,0,0],"split_type":[0,0,0,0,0,0,0,0,0,0,0,0,0,0,0],"sum_hessian":[9.412404E4,6.859418E4,2.5529855E4,3.3956824E4,3.463736E4,1.2484535E4,1.3045319E4,1.9470412E4,1.4486411E4,2.0956297E4,1.36810625E4,4.763404E3,7.721132E3,7.731175E3,5.3141445E3],"tree_param":{"num_deleted":"0","num_feature":"12","num_nodes":"15","size_leaf_vector":"1"}},{"base_weights":[-1.9284246E-3,-5.023488E-2,1.2731151E-1,-8.558446E-2,-1.1215426E-3,7.378261E-2,2.2731987E-1,-7.83604E-3,-3.1424193E-3,-2.3252044E-3,2.2293127E-3,3.0176092E-3,9.332418E-3,1.145394E-2,1.7678669E-2],"categories":[],"categories_nodes":[],"categories_segments":[],"categories_sizes":[],"default_left":[0,0,0,0,0,0,0,0,0,0,0,0,0,0,0],"id":30,"left_children":[1,3,5,7,9,11,13,-1,-1,-1,-1,-1,-1,-1,-1],"loss_changes":[5.8704767E2,1.18833664E2,1.3694193E2,5.6653625E1,3.8631493E1,3.210855E1,2.1902618E1,0E0,0E0,0E0,0E0,0E0,0E0,0E0,0E0],"parents":[2147483647,0,0,1,1,2,2,3,3,4,4,5,5,6,6],"right_children":[2,4,6,8,10,12,14,-1,-1,-1,-1,-1,-1,-1,-1],"split_conditions":[2E0,1E0,3E0,1E0,1E0,2E0,1E0,-7.83604E-3,-3.1424193E-3,-2.3252044E-3,2.2293127E-3,3.0176092E-3,9.332418E-3,1.145394E-2,1.7678669E-2],"split_indices":[0,5,0,10,9,4,5,0,0,0,0,0,0,0,0],"split_type":[0,0,0,0,0,0,0,0,0,0,0,0,0,0,0],"sum_hessian":[9.402906E4,6.844627E4,2.5582787E4,3.979958E4,2.86467E4,1.6664791E4,8.917996E3,1.8355475E4,2.1444102E4,1.4459221E4,1.4187478E4,1.2555025E4,4.109766E3,5.1344604E3,3.7835361E3],"tree_param":{"num_deleted":"0","num_feature":"12","num_nodes":"15","size_leaf_vector":"1"}},{"base_weights":[1.8735342E-3,-4.35205E-2,1.2305891E-1,4.383552E-2,-1.2935603E-1,3.45411E-1,7.214824E-2,3.7232888E-4,8.430115E-3,-1.9596865E-2,-6.7011737E-3,1.6114453E-2,2.4199286E-2,-1.1300151E-4,1.2160151E-2],"categories":[],"categories_nodes":[],"categories_segments":[],"categories_sizes":[],"default_left":[0,0,0,0,0,0,0,0,0,0,0,0,0,0,0],"id":31,"left_children":[1,3,5,7,9,11,13,-1,-1,-1,-1,-1,-1,-1,-1],"loss_changes":[5.1647736E2,5.121487E2,2.895958E2,1.1795829E2,1.3689563E2,1.8176758E1,1.9087897E2,0E0,0E0,0E0,0E0,0E0,0E0,0E0,0E0],"parents":[2147483647,0,0,1,1,2,2,3,3,4,4,5,5,6,6],"right_children":[2,4,6,8,10,12,14,-1,-1,-1,-1,-1,-1,-1,-1],"split_conditions":[2E0,1E0,1E0,1E0,2.5E-1,3.115578E-1,3E0,3.7232888E-4,8.430115E-3,-1.9596865E-2,-6.7011737E-3,1.6114453E-2,2.4199286E-2,-1.1300151E-4,1.2160151E-2],"split_indices":[0,1,1,0,7,7,0,0,0,0,0,0,0,0,0],"split_type":[0,0,0,0,0,0,0,0,0,0,0,0,0,0,0],"sum_hessian":[9.388434E4,6.830068E4,2.5583662E4,3.385077E4,3.4449914E4,4.765328E3,2.0818334E4,2.399601E4,9.854759E3,3.526016E3,3.0923896E4,1.6407477E3,3.1245803E3,1.3038175E4,7.780159E3],"tree_param":{"num_deleted":"0","num_feature":"12","num_nodes":"15","size_leaf_vector":"1"}},{"base_weights":[-3.5160442E-3,-2.7377965E-2,2.2480443E-1,1.4658136E-2,-1.5327924E-1,3.3849463E-1,1.4945613E-1,-3.125069E-3,5.9825205E-3,-1.2404977E-2,-4.408321E-3,2.6330559E-2,1.8496929E-2,5.3982604E-3,1.1251659E-2],"categories":[],"categories_nodes":[],"categories_segments":[],"categories_sizes":[],"default_left":[0,0,0,0,0,0,0,0,0,0,0,0,0,0,0],"id":32,"left_children":[1,3,5,7,9,11,13,-1,-1,-1,-1,-1,-1,-1,-1],"loss_changes":[5.113859E2,4.4976193E2,7.6032074E1,3.3909885E2,8.174353E1,1.2129364E1,1.0650223E1,0E0,0E0,0E0,0E0,0E0,0E0,0E0,0E0],"parents":[2147483647,0,0,1,1,2,2,3,3,4,4,5,5,6,6],"right_children":[2,4,6,8,10,12,14,-1,-1,-1,-1,-1,-1,-1,-1],"split_conditions":[3E0,2E0,2E0,1E0,2E0,1E0,2.951807E-1,-3.125069E-3,5.9825205E-3,-1.2404977E-2,-4.408321E-3,2.6330559E-2,1.8496929E-2,5.3982604E-3,1.1251659E-2],"split_indices":[0,1,1,0,0,1,8,0,0,0,0,0,0,0,0],"split_type":[0,0,0,0,0,0,0,0,0,0,0,0,0,0,0],"sum_hessian":[9.386174E4,8.498119E4,8.880559E3,6.371036E4,2.1270822E4,3.538284E3,5.342275E3,3.549119E4,2.821917E4,1.3556409E4,7.7144136E3,1.1233271E3,2.4149568E3,1.8116625E3,3.5306125E3],"tree_param":{"num_deleted":"0","num_feature":"12","num_nodes":"15","size_leaf_vector":"1"}},{"base_weights":[2.8879187E-4,-4.549623E-2,5.214511E-2,-9.500648E-2,4.30513E-3,-7.236702E-2,7.8023285E-2,-1.9795785E-2,-5.0250115E-3,-4.367816E-3,2.3548508E-3,-6.9834205E-4,-1.1621384E-2,3.7264654E-3,1.0582128E-2],"categories":[],"categories_nodes":[],"categories_segments":[],"categories_sizes":[],"default_left":[0,0,0,0,0,0,0,0,0,0,0,0,0,0,0],"id":33,"left_children":[1,3,5,7,9,11,13,-1,-1,-1,-1,-1,-1,-1,-1],"loss_changes":[2.2258109E2,1.2276342E2,1.4164963E2,7.819945E1,6.2466614E1,5.3174686E1,6.043521E1,0E0,0E0,0E0,0E0,0E0,0E0,0E0,0E0],"parents":[2147483647,0,0,1,1,2,2,3,3,4,4,5,5,6,6],"right_children":[2,4,6,8,10,12,14,-1,-1,-1,-1,-1,-1,-1,-1],"split_conditions":[3.1707317E-1,3.298969E-1,2.7403846E-1,1.6666667E-1,2.6451612E-1,2E0,3E0,-1.9795785E-2,-5.0250115E-3,-4.367816E-3,2.3548508E-3,-6.9834205E-4,-1.1621384E-2,3.7264654E-3,1.0582128E-2],"split_indices":[8,7,7,7,8,2,11,0,0,0,0,0,0,0,0],"split_type":[0,0,0,0,0,0,0,0,0,0,0,0,0,0,0],"sum_hessian":[9.374624E4,4.978774E4,4.3958508E4,2.4966383E4,2.4821354E4,7.5637827E3,3.6394727E4,1.4633486E3,2.3503035E4,7.7085146E3,1.711284E4,4.940578E3,2.6232046E3,3.0493346E4,5.9013794E3],"tree_param":{"num_deleted":"0","num_feature":"12","num_nodes":"15","size_leaf_vector":"1"}},{"base_weights":[-4.7258654E-4,-4.362934E-2,1.1449857E-1,2.9934207E-2,-1.16349034E-1,2.1588914E-1,1.8296719E-2,-7.354865E-4,5.3150146E-3,-4.4797687E-3,-1.144348E-2,1.9134218E-2,9.850252E-3,-3.515149E-3,7.775361E-3],"categories":[],"categories_nodes":[],"categories_segments":[],"categories_sizes":[],"default_left":[0,0,0,0,0,0,0,0,0,0,0,0,0,0,0],"id":34,"left_children":[1,3,5,7,9,11,13,-1,-1,-1,-1,-1,-1,-1,-1],"loss_changes":[4.65183E2,3.6465768E2,2.4957477E2,7.899573E1,1.03088745E2,6.580487E1,1.0544302E2,0E0,0E0,0E0,0E0,0E0,0E0,0E0,0E0],"parents":[2147483647,0,0,1,1,2,2,3,3,4,4,5,5,6,6],"right_children":[2,4,6,8,10,12,14,-1,-1,-1,-1,-1,-1,-1,-1],"split_conditions":[2E0,1E0,2E0,1E0,2E0,1E0,3E0,-7.354865E-4,5.3150146E-3,-4.4797687E-3,-1.144348E-2,1.9134218E-2,9.850252E-3,-3.515149E-3,7.775361E-3],"split_indices":[0,1,1,11,1,1,0,0,0,0,0,0,0,0,0],"split_type":[0,0,0,0,0,0,0,0,0,0,0,0,0,0,0],"sum_hessian":[9.375122E4,6.81648E4,2.5586418E4,3.3886082E4,3.4278715E4,1.2456657E4,1.3129761E4,1.9371266E4,1.4514817E4,2.0815768E4,1.3462946E4,4.744624E3,7.712033E3,7.7228184E3,5.406942E3],"tree_param":{"num_deleted":"0","num_feature":"12","num_nodes":"15","size_leaf_vector":"1"}},{"base_weights":[1.3780026E-4,-3.748214E-2,9.9939406E-2,3.45277E-2,-1.0891603E-1,1.9795074E-1,6.389724E-3,-3.0742597E-4,6.9072284E-3,-2.2444917E-2,-6.069159E-3,1.7063323E-2,9.331976E-3,-4.2824266E-3,7.0873424E-3],"categories":[],"categories_nodes":[],"categories_segments":[],"categories_sizes":[],"default_left":[0,0,0,0,0,0,0,0,0,0,0,0,0,0,0],"id":35,"left_children":[1,3,5,7,9,11,13,-1,-1,-1,-1,-1,-1,-1,-1],"loss_changes":[3.5130536E2,3.4955276E2,2.3485976E2,1.0269997E2,9.530209E1,4.580133E1,1.0670839E2,0E0,0E0,0E0,0E0,0E0,0E0,0E0,0E0],"parents":[2147483647,0,0,1,1,2,2,3,3,4,4,5,5,6,6],"right_children":[2,4,6,8,10,12,14,-1,-1,-1,-1,-1,-1,-1,-1],"split_conditions":[2E0,1E0,2E0,3.4920636E-1,1.875E-1,1E0,3E0,-3.0742597E-4,6.9072284E-3,-2.2444917E-2,-6.069159E-3,1.7063323E-2,9.331976E-3,-4.2824266E-3,7.0873424E-3],"split_indices":[0,1,1,7,7,1,0,0,0,0,0,0,0,0,0],"split_type":[0,0,0,0,0,0,0,0,0,0,0,0,0,0,0],"sum_hessian":[9.356639E4,6.795251E4,2.5613883E4,3.384009E4,3.4112414E4,1.250811E4,1.3105772E4,2.235586E4,1.1484231E4,1.4254377E3,3.2686977E4,4.7599897E3,7.748121E3,7.7129526E3,5.3928193E3],"tree_param":{"num_deleted":"0","num_feature":"12","num_nodes":"15","size_leaf_vector":"1"}},{"base_weights":[2.4745348E-3,-1.650859E-2,1.837013E-1,-6.365268E-2,2.742921E-2,2.933875E-1,1.11726776E-1,2.5124995E-5,-9.632098E-3,5.756829E-3,-2.6964596E-3,2.3769394E-2,1.55923655E-2,5.5977735E-3,1.0940065E-2],"categories":[],"categories_nodes":[],"categories_segments":[],"categories_sizes":[],"default_left":[0,0,0,0,0,0,0,0,0,0,0,0,0,0,0],"id":36,"left_children":[1,3,5,7,9,11,13,-1,-1,-1,-1,-1,-1,-1,-1],"loss_changes":[3.2214005E2,1.7557468E2,7.005905E1,2.4011569E2,2.0348654E2,1.316864E1,7.427742E0,0E0,0E0,0E0,0E0,0E0,0E0,0E0,0E0],"parents":[2147483647,0,0,1,1,2,2,3,3,4,4,5,5,6,6],"right_children":[2,4,6,8,10,12,14,-1,-1,-1,-1,-1,-1,-1,-1],"split_conditions":[3E0,1E0,6E0,2E0,4E0,5E0,2E0,2.5124995E-5,-9.632098E-3,5.756829E-3,-2.6964596E-3,2.3769394E-2,1.55923655E-2,5.5977735E-3,1.0940065E-2],"split_indices":[0,0,6,6,6,6,4,0,0,0,0,0,0,0,0],"split_type":[0,0,0,0,0,0,0,0,0,0,0,0,0,0,0],"sum_hessian":[9.363665E4,8.475921E4,8.87744E3,4.088753E4,4.387168E4,3.5160503E3,5.3613906E3,2.4069686E4,1.6817846E4,2.2821857E4,2.104982E4,1.1158741E3,2.400176E3,4.0278242E3,1.3335662E3],"tree_param":{"num_deleted":"0","num_feature":"12","num_nodes":"15","size_leaf_vector":"1"}},{"base_weights":[7.222978E-4,-3.403912E-2,9.29085E-2,-1.2347728E-1,-5.4550795E-3,2.5092334E-1,6.638763E-2,-2.0498415E-2,-6.1791483E-3,-2.4711906E-3,3.590037E-3,1.1925432E-2,2.0071879E-2,-2.5617937E-4,1.053153E-2],"categories":[],"categories_nodes":[],"categories_segments":[],"categories_sizes":[],"default_left":[0,0,0,0,0,0,0,0,0,0,0,0,0,0,0],"id":37,"left_children":[1,3,5,7,9,11,13,-1,-1,-1,-1,-1,-1,-1,-1],"loss_changes":[2.9995135E2,1.7376956E2,1.0739365E2,8.121185E1,1.1223698E2,1.5644699E1,1.6010829E2,0E0,0E0,0E0,0E0,0E0,0E0,0E0,0E0],"parents":[2147483647,0,0,1,1,2,2,3,3,4,4,5,5,6,6],"right_children":[2,4,6,8,10,12,14,-1,-1,-1,-1,-1,-1,-1,-1],"split_conditions":[2E0,2.914573E-1,4E0,1.2962963E-1,3.3333334E-1,1E0,3E0,-2.0498415E-2,-6.1791483E-3,-2.4711906E-3,3.590037E-3,1.1925432E-2,2.0071879E-2,-2.5617937E-4,1.053153E-2],"split_indices":[0,7,6,7,8,11,0,0,0,0,0,0,0,0,0],"split_type":[0,0,0,0,0,0,0,0,0,0,0,0,0,0,0],"sum_hessian":[9.36005E4,6.797081E4,2.562969E4,1.6461188E4,5.150962E4,3.682199E3,2.194749E4,1.6976448E3,1.4763543E4,3.338392E4,1.8125701E4,2.0412925E3,1.6409065E3,1.3051239E4,8.896251E3],"tree_param":{"num_deleted":"0","num_feature":"12","num_nodes":"15","size_leaf_vector":"1"}},{"base_weights":[3.576456E-4,2.9951418E-2,-7.5090416E-2,-4.3101306E-3,9.5468916E-2,-2.0283753E-1,-5.92161E-2,-2.9261874E-3,2.8471777E-3,2.9252807E-3,9.077068E-3,-1.3646393E-2,1.4902071E-2,-9.035629E-3,-2.447455E-3],"categories":[],"categories_nodes":[],"categories_segments":[],"categories_sizes":[],"default_left":[0,0,0,0,0,0,0,0,0,0,0,0,0,0,0],"id":38,"left_children":[1,3,5,7,9,11,13,-1,-1,-1,-1,-1,-1,-1,-1],"loss_changes":[2.0899826E2,1.5091954E2,5.34664E1,9.507228E1,5.675293E1,2.2297226E1,4.0062622E1,0E0,0E0,0E0,0E0,0E0,0E0,0E0,0E0],"parents":[2147483647,0,0,1,1,2,2,3,3,4,4,5,5,6,6],"right_children":[2,4,6,8,10,12,14,-1,-1,-1,-1,-1,-1,-1,-1],"split_conditions":[2E0,3.4920636E-1,2.5263157E-1,3.190184E-1,3.1538463E-1,4.8E-1,2.6811594E-1,-2.9261874E-3,2.8471777E-3,2.9252807E-3,9.077068E-3,-1.3646393E-2,1.4902071E-2,-9.035629E-3,-2.447455E-3],"split_indices":[1,7,7,8,8,8,8,0,0,0,0,0,0,0,0],"split_type":[0,0,0,0,0,0,0,0,0,0,0,0,0,0,0],"sum_hessian":[9.360196E4,6.723162E4,2.6370348E4,4.414663E4,2.3084988E4,2.9133835E3,2.3456965E4,2.3815045E4,2.0331584E4,1.1847337E4,1.123765E4,2.8048713E3,1.0851221E2,4.359115E3,1.909785E4],"tree_param":{"num_deleted":"0","num_feature":"12","num_nodes":"15","size_leaf_vector":"1"}},{"base_weights":[6.5197604E-4,-5.553626E-2,2.9608777E-2,-8.370178E-2,3.1532023E-2,-8.84853E-2,4.3976758E-2,-6.8391864E-3,1.1932565E-3,1.5517157E-3,3.9569847E-2,-9.185393E-3,-2.541308E-3,6.952191E-4,5.4836897E-3],"categories":[],"categories_nodes":[],"categories_segments":[],"categories_sizes":[],"default_left":[0,0,0,0,0,0,0,0,0,0,0,0,0,0,0],"id":39,"left_children":[1,3,5,7,9,11,13,-1,-1,-1,-1,-1,-1,-1,-1],"loss_changes":[1.5214697E2,7.799217E1,1.0471123E2,6.576924E1,3.0677097E1,1.895813E1,8.013275E1,0E0,0E0,0E0,0E0,0E0,0E0,0E0,0E0],"parents":[2147483647,0,0,1,1,2,2,3,3,4,4,5,5,6,6],"right_children":[2,4,6,8,10,12,14,-1,-1,-1,-1,-1,-1,-1,-1],"split_conditions":[2.951807E-1,3.642857E-1,2.5263157E-1,2E0,8E0,2.0652173E-1,1E0,-6.8391864E-3,1.1932565E-3,1.5517157E-3,3.9569847E-2,-9.185393E-3,-2.541308E-3,6.952191E-4,5.4836897E-3],"split_indices":[8,7,7,4,4,7,5,0,0,0,0,0,0,0,0],"split_type":[0,0,0,0,0,0,0,0,0,0,0,0,0,0,0],"sum_hessian":[9.3509984E4,3.1801305E4,6.1708676E4,2.402844E4,7.772866E3,6.6928975E3,5.501578E4,1.9096465E4,4.931975E3,7.691371E3,8.149517E1,2.9665305E3,3.726367E3,3.1672021E4,2.334376E4],"tree_param":{"num_deleted":"0","num_feature":"12","num_nodes":"15","size_leaf_vector":"1"}},{"base_weights":[-1.1844889E-3,-3.4643404E-2,8.760689E-2,2.2730166E-2,-9.2020996E-2,1.7284864E-1,5.841991E-3,-1.0910537E-3,4.734727E-3,-3.3807682E-3,-9.341265E-3,8.464257E-3,1.6478209E-2,-3.5066872E-3,5.881477E-3],"categories":[],"categories_nodes":[],"categories_segments":[],"categories_sizes":[],"default_left":[0,0,0,0,0,0,0,0,0,0,0,0,0,0,0],"id":40,"left_children":[1,3,5,7,9,11,13,-1,-1,-1,-1,-1,-1,-1,-1],"loss_changes":[2.7788202E2,2.2364378E2,1.784254E2,7.345342E1,7.465994E1,4.2283447E1,7.256823E1,0E0,0E0,0E0,0E0,0E0,0E0,0E0,0E0],"parents":[2147483647,0,0,1,1,2,2,3,3,4,4,5,5,6,6],"right_children":[2,4,6,8,10,12,14,-1,-1,-1,-1,-1,-1,-1,-1],"split_conditions":[2E0,1E0,2E0,1E0,2E0,3E0,3E0,-1.0910537E-3,4.734727E-3,-3.3807682E-3,-9.341265E-3,8.464257E-3,1.6478209E-2,-3.5066872E-3,5.881477E-3],"split_indices":[0,1,1,5,1,0,0,0,0,0,0,0,0,0,0],"split_type":[0,0,0,0,0,0,0,0,0,0,0,0,0,0,0],"sum_hessian":[9.3533766E4,6.793477E4,2.559899E4,3.396888E4,3.3965895E4,1.2532481E4,1.3066508E4,1.9388842E4,1.4580038E4,2.0714516E4,1.3251379E4,9.008747E3,3.5237346E3,7.6818794E3,5.384629E3],"tree_param":{"num_deleted":"0","num_feature":"12","num_nodes":"15","size_leaf_vector":"1"}},{"base_weights":[-5.4183585E-4,4.8519388E-2,-3.5338137E-2,2.3490174E-2,2.2569421E-1,-8.0727E-2,2.7247232E-3,-6.523754E-4,5.4686293E-3,1.2052906E-2,2.048924E-2,-3.3666324E-3,-1.2912925E-2,7.315503E-3,-2.3701182E-3],"categories":[],"categories_nodes":[],"categories_segments":[],"categories_sizes":[],"default_left":[0,0,0,0,0,0,0,0,0,0,0,0,0,0,0],"id":41,"left_children":[1,3,5,7,9,11,13,-1,-1,-1,-1,-1,-1,-1,-1],"loss_changes":[1.5942628E2,1.7183644E2,9.4392296E1,7.4714455E1,1.5671539E1,8.399123E1,1.4023306E2,0E0,0E0,0E0,0E0,0E0,0E0,0E0,0E0],"parents":[2147483647,0,0,1,1,2,2,3,3,4,4,5,5,6,6],"right_children":[2,4,6,8,10,12,14,-1,-1,-1,-1,-1,-1,-1,-1],"split_conditions":[1E0,3E0,4E0,3.4859154E-1,4E0,2E0,2E0,-6.523754E-4,5.4686293E-3,1.2052906E-2,2.048924E-2,-3.3666324E-3,-1.2912925E-2,7.315503E-3,-2.3701182E-3],"split_indices":[1,6,6,7,6,1,1,0,0,0,0,0,0,0,0],"split_type":[0,0,0,0,0,0,0,0,0,0,0,0,0,0,0],"sum_hessian":[9.338543E4,3.8749695E4,5.463573E4,3.3954176E4,4.795522E3,2.491919E4,2.9716541E4,2.2255525E4,1.169865E4,3.6933586E3,1.102163E3,2.0640969E4,4.278222E3,7.7896904E3,2.192685E4],"tree_param":{"num_deleted":"0","num_feature":"12","num_nodes":"15","size_leaf_vector":"1"}},{"base_weights":[-1.9094677E-3,-3.203166E-2,3.971689E-2,-4.8467938E-2,2.2987591E-2,1.15713455E-1,-5.8792487E-2,-4.909822E-3,-9.936177E-4,1.1030462E-3,8.289859E-3,5.1252395E-3,1.6799148E-2,-6.843247E-3,-4.4456517E-4],"categories":[],"categories_nodes":[],"categories_segments":[],"categories_sizes":[],"default_left":[0,0,0,0,0,0,0,0,0,0,0,0,0,0,0],"id":42,"left_children":[1,3,5,7,9,11,13,-1,-1,-1,-1,-1,-1,-1,-1],"loss_changes":[1.17186646E2,4.903499E1,2.9375034E2,4.1594894E1,7.1770687E0,1.13632416E2,4.548433E1,0E0,0E0,0E0,0E0,0E0,0E0,0E0,0E0],"parents":[2147483647,0,0,1,1,2,2,3,3,4,4,5,5,6,6],"right_children":[2,4,6,8,10,12,14,-1,-1,-1,-1,-1,-1,-1,-1],"split_conditions":[1E0,2E0,2E0,1E0,9E0,4E0,1E0,-4.909822E-3,-9.936177E-4,1.1030462E-3,8.289859E-3,5.1252395E-3,1.6799148E-2,-6.843247E-3,-4.4456517E-4],"split_indices":[5,4,2,9,4,11,9,0,0,0,0,0,0,0,0],"split_type":[0,0,0,0,0,0,0,0,0,0,0,0,0,0,0],"sum_hessian":[9.3457414E4,5.4221324E4,3.9236094E4,4.174937E4,1.2471955E4,2.214885E4,1.7087244E4,2.144819E4,2.030118E4,1.1913475E4,5.584804E2,1.8259969E4,3.8888809E3,8.548188E3,8.539055E3],"tree_param":{"num_deleted":"0","num_feature":"12","num_nodes":"15","size_leaf_vector":"1"}},{"base_weights":[-3.710353E-4,-2.9891524E-2,4.6074625E-2,-2.0850089E-1,-2.1666415E-2,6.2340824E-3,8.249935E-2,-1.7617505E-2,-4.176046E-3,-3.3844917E-3,1.4351952E-3,2.1248201E-3,-1.6958035E-3,2.82838E-3,8.403471E-3],"categories":[],"categories_nodes":[],"categories_segments":[],"categories_sizes":[],"default_left":[0,0,0,0,0,0,0,0,0,0,0,0,0,0,0],"id":43,"left_children":[1,3,5,7,9,11,13,-1,-1,-1,-1,-1,-1,-1,-1],"loss_changes":[1.2807353E2,8.389543E1,5.2675858E1,2.6809456E1,8.052069E1,1.6320631E1,3.7077576E1,0E0,0E0,0E0,0E0,0E0,0E0,0E0,0E0],"parents":[2147483647,0,0,1,1,2,2,3,3,4,4,5,5,6,6],"right_children":[2,4,6,8,10,12,14,-1,-1,-1,-1,-1,-1,-1,-1],"split_conditions":[3.4285715E-1,1.4634146E-1,1E0,6E0,1E0,6E0,1E0,-1.7617505E-2,-4.176046E-3,-3.3844917E-3,1.4351952E-3,2.1248201E-3,-1.6958035E-3,2.82838E-3,8.403471E-3],"split_indices":[7,7,10,3,5,3,5,0,0,0,0,0,0,0,0],"split_type":[0,0,0,0,0,0,0,0,0,0,0,0,0,0,0],"sum_hessian":[9.340743E4,5.710947E4,3.6297965E4,2.5130874E3,5.459638E4,1.7336674E4,1.8961291E4,1.6359374E3,8.7714996E2,3.1477176E4,2.3119203E4,9.449158E3,7.887515E3,1.1182245E4,7.779045E3],"tree_param":{"num_deleted":"0","num_feature":"12","num_nodes":"15","size_leaf_vector":"1"}},{"base_weights":[6.2448735E-4,-5.929119E-2,4.6976075E-2,-7.7618356E-3,-1.338108E-1,2.380083E-2,1.6129819E-1,-7.6477025E-3,6.2624185E-4,-1.4676135E-2,-6.335133E-3,4.6971147E-3,-2.0462358E-3,1.54877985E-2,6.413921E-3],"categories":[],"categories_nodes":[],"categories_segments":[],"categories_sizes":[],"default_left":[0,0,0,0,0,0,0,0,0,0,0,0,0,0,0],"id":44,"left_children":[1,3,5,7,9,11,13,-1,-1,-1,-1,-1,-1,-1,-1],"loss_changes":[2.5927808E2,1.5636818E2,1.3945824E2,4.969446E1,5.4169952E1,1.2913199E2,4.538846E1,0E0,0E0,0E0,0E0,0E0,0E0,0E0,0E0],"parents":[2147483647,0,0,1,1,2,2,3,3,4,4,5,5,6,6],"right_children":[2,4,6,8,10,12,14,-1,-1,-1,-1,-1,-1,-1,-1],"split_conditions":[1E0,2E0,3E0,2.631579E-1,2.8834355E-1,4E0,6E0,-7.6477025E-3,6.2624185E-4,-1.4676135E-2,-6.335133E-3,4.6971147E-3,-2.0462358E-3,1.54877985E-2,6.413921E-3],"split_indices":[0,6,0,7,7,6,6,0,0,0,0,0,0,0,0],"split_type":[0,0,0,0,0,0,0,0,0,0,0,0,0,0,0],"sum_hessian":[9.335797E4,4.07207E4,5.2637273E4,2.4074557E4,1.664614E4,4.3766242E4,8.871033E3,3.22188E3,2.0852678E4,3.9154756E3,1.2730666E4,2.2859691E4,2.0906549E4,3.506943E3,5.36409E3],"tree_param":{"num_deleted":"0","num_feature":"12","num_nodes":"15","size_leaf_vector":"1"}},{"base_weights":[-1.4941004E-3,-5.4695327E-2,2.8398348E-2,-2.018889E-1,-4.289378E-2,-5.9785157E-2,4.770275E-2,-1.4728347E-2,1.0971905E-2,-5.1421435E-3,7.0418074E-4,-5.794395E-3,4.778233E-3,6.015291E-3,7.72853E-4],"categories":[],"categories_nodes":[],"categories_segments":[],"categories_sizes":[],"default_left":[0,0,0,0,0,0,0,0,0,0,0,0,0,0,0],"id":45,"left_children":[1,3,5,7,9,11,13,-1,-1,-1,-1,-1,-1,-1,-1],"loss_changes":[1.484902E2,5.8340668E1,1.0177111E2,3.3680916E1,6.753015E1,4.9454422E1,8.520616E1,0E0,0E0,0E0,0E0,0E0,0E0,0E0,0E0],"parents":[2147483647,0,0,1,1,2,2,3,3,4,4,5,5,6,6],"right_children":[2,4,6,8,10,12,14,-1,-1,-1,-1,-1,-1,-1,-1],"split_conditions":[3.115578E-1,1.4634146E-1,2.6811594E-1,4.2857143E-1,1E0,2E0,1E0,-1.4728347E-2,1.0971905E-2,-5.1421435E-3,7.0418074E-4,-5.794395E-3,4.778233E-3,6.015291E-3,7.72853E-4],"split_indices":[7,7,8,8,5,4,1,0,0,0,0,0,0,0,0],"split_type":[0,0,0,0,0,0,0,0,0,0,0,0,0,0,0],"sum_hessian":[9.336959E4,3.3588848E4,5.9780742E4,2.4919653E3,3.1096885E4,1.0736008E4,4.9044734E4,2.2781306E3,2.1383481E2,1.789352E4,1.3203364E4,8.617004E3,2.1190044E3,2.04433E4,2.8601436E4],"tree_param":{"num_deleted":"0","num_feature":"12","num_nodes":"15","size_leaf_vector":"1"}},{"base_weights":[-1.6730885E-3,4.355044E-2,-3.376504E-2,2.1189941E-2,2.0143028E-1,-7.0184454E-2,-3.1805395E-3,-1.0021154E-2,1.8087275E-3,1.0558999E-2,1.6486907E-2,-1.9188879E-2,-3.7350464E-3,5.768515E-3,-2.3168721E-3],"categories":[],"categories_nodes":[],"categories_segments":[],"categories_sizes":[],"default_left":[0,0,0,0,0,0,0,0,0,0,0,0,0,0,0],"id":46,"left_children":[1,3,5,7,9,11,13,-1,-1,-1,-1,-1,-1,-1,-1],"loss_changes":[1.3548268E2,1.3678792E2,6.082103E1,4.950001E1,9.605255E0,5.933496E1,9.760288E1,0E0,0E0,0E0,0E0,0E0,0E0,0E0,0E0],"parents":[2147483647,0,0,1,1,2,2,3,3,4,4,5,5,6,6],"right_children":[2,4,6,8,10,12,14,-1,-1,-1,-1,-1,-1,-1,-1],"split_conditions":[1E0,3E0,4E0,1.971831E-1,7E0,1.875E-1,2E0,-1.0021154E-2,1.8087275E-3,1.0558999E-2,1.6486907E-2,-1.9188879E-2,-3.7350464E-3,5.768515E-3,-2.3168721E-3],"split_indices":[1,6,6,7,3,7,1,0,0,0,0,0,0,0,0],"split_type":[0,0,0,0,0,0,0,0,0,0,0,0,0,0,0],"sum_hessian":[9.33499E4,3.8747336E4,5.4602562E4,3.394136E4,4.8059756E3,2.4923205E4,2.9679357E4,1.4185505E3,3.252281E4,3.2420376E3,1.5639381E3,9.9422144E2,2.3928984E4,7.7802E3,2.1899156E4],"tree_param":{"num_deleted":"0","num_feature":"12","num_nodes":"15","size_leaf_vector":"1"}},{"base_weights":[9.919056E-4,-5.142638E-2,4.122387E-2,-1.9574853E-2,-1.1716443E-1,2.239105E-2,1.3420628E-1,-4.4592274E-3,4.5754355E-3,-9.542207E-3,-4.879172E-3,-1.3656485E-3,4.025608E-3,6.4006024E-3,1.0908161E-2],"categories":[],"categories_nodes":[],"categories_segments":[],"categories_sizes":[],"default_left":[0,0,0,0,0,0,0,0,0,0,0,0,0,0,0],"id":47,"left_children":[1,3,5,7,9,11,13,-1,-1,-1,-1,-1,-1,-1,-1],"loss_changes":[1.9654216E2,8.473478E1,9.232937E1,1.3320364E2,1.8648865E1,8.281769E1,1.1457764E1,0E0,0E0,0E0,0E0,0E0,0E0,0E0,0E0],"parents":[2147483647,0,0,1,1,2,2,3,3,4,4,5,5,6,6],"right_children":[2,4,6,8,10,12,14,-1,-1,-1,-1,-1,-1,-1,-1],"split_conditions":[1E0,2E0,3E0,1E0,1E0,3.2857144E-1,1E0,-4.4592274E-3,4.5754355E-3,-9.542207E-3,-4.879172E-3,-1.3656485E-3,4.025608E-3,6.4006024E-3,1.0908161E-2],"split_indices":[0,2,0,5,9,7,5,0,0,0,0,0,0,0,0],"split_type":[0,0,0,0,0,0,0,0,0,0,0,0,0,0,0],"sum_hessian":[9.3194945E4,4.0468367E4,5.2726574E4,2.7261076E4,1.3207291E4,4.3846973E4,8.879602E3,1.746873E4,9.792346E3,6.7575815E3,6.4497095E3,2.1447697E4,2.2399275E4,5.095824E3,3.7837778E3],"tree_param":{"num_deleted":"0","num_feature":"12","num_nodes":"15","size_leaf_vector":"1"}},{"base_weights":[8.5899245E-4,-2.6343323E-2,7.275584E-2,-1.4213456E-3,-1.303598E-1,1.2764572E-1,1.9723631E-2,1.5830117E-3,-3.5027093E-3,-1.0824411E-2,-5.567085E-3,5.1421705E-3,1.1571983E-2,-1.9316378E-3,5.6466344E-3],"categories":[],"categories_nodes":[],"categories_segments":[],"categories_sizes":[],"default_left":[0,0,0,0,0,0,0,0,0,0,0,0,0,0,0],"id":48,"left_children":[1,3,5,7,9,11,13,-1,-1,-1,-1,-1,-1,-1,-1],"loss_changes":[1.8222606E2,1.7523425E2,7.444713E1,8.09232E1,2.3419464E1,3.312596E1,4.7213013E1,0E0,0E0,0E0,0E0,0E0,0E0,0E0,0E0],"parents":[2147483647,0,0,1,1,2,2,3,3,4,4,5,5,6,6],"right_children":[2,4,6,8,10,12,14,-1,-1,-1,-1,-1,-1,-1,-1],"split_conditions":[2E0,2E0,2E0,2E0,1E0,1E0,3E0,1.5830117E-3,-3.5027093E-3,-1.0824411E-2,-5.567085E-3,5.1421705E-3,1.1571983E-2,-1.9316378E-3,5.6466344E-3],"split_indices":[0,1,1,2,10,11,0,0,0,0,0,0,0,0,0],"split_type":[0,0,0,0,0,0,0,0,0,0,0,0,0,0,0],"sum_hessian":[9.317203E4,6.759715E4,2.5574883E4,5.4532395E4,1.3064754E4,1.2566639E4,1.3008243E4,3.6613582E4,1.7918814E4,6.252722E3,6.8120317E3,7.1476343E3,5.419005E3,7.5934097E3,5.414834E3],"tree_param":{"num_deleted":"0","num_feature":"12","num_nodes":"15","size_leaf_vector":"1"}},{"base_weights":[4.895474E-3,-4.3374017E-2,4.209512E-2,1.5070785E-3,-1.0881342E-1,8.731474E-2,-2.6989197E-2,-1.2564301E-2,6.027664E-4,-2.353929E-2,-6.1568907E-3,3.2543459E-3,8.312874E-3,-3.9923782E-3,4.9323295E-3],"categories":[],"categories_nodes":[],"categories_segments":[],"categories_sizes":[],"default_left":[0,0,0,0,0,0,0,0,0,0,0,0,0,0,0],"id":49,"left_children":[1,3,5,7,9,11,13,-1,-1,-1,-1,-1,-1,-1,-1],"loss_changes":[1.6717728E2,1.19014275E2,1.6426355E2,4.0300236E1,4.249344E1,5.1734894E1,8.2865776E1,0E0,0E0,0E0,0E0,0E0,0E0,0E0,0E0],"parents":[2147483647,0,0,1,1,2,2,3,3,4,4,5,5,6,6],"right_children":[2,4,6,8,10,12,14,-1,-1,-1,-1,-1,-1,-1,-1],"split_conditions":[1E0,1E0,2E0,1.875E-1,1.6666667E-1,1E0,3E0,-1.2564301E-2,6.027664E-4,-2.353929E-2,-6.1568907E-3,3.2543459E-3,8.312874E-3,-3.9923782E-3,4.9323295E-3],"split_indices":[0,1,1,7,7,5,0,0,0,0,0,0,0,0,0],"split_type":[0,0,0,0,0,0,0,0,0,0,0,0,0,0,0],"sum_hessian":[9.310142E4,4.0521453E4,5.257997E4,2.4036906E4,1.6484547E4,3.177872E4,2.0801248E4,9.288458E2,2.310806E4,5.5898956E2,1.5925557E4,1.8209105E4,1.3569613E4,1.5397167E4,5.40408E3],"tree_param":{"num_deleted":"0","num_feature":"12","num_nodes":"15","size_leaf_vector":"1"}},{"base_weights":[-1.9346336E-3,-3.0693663E-2,4.8548676E-2,-4.422949E-2,6.1626688E-2,2.0297726E-4,9.1648184E-2,-4.7299564E-3,-6.855725E-4,6.799992E-3,-1.1941346E-3,-2.2199634E-3,2.290769E-3,7.355487E-3,2.201448E-3],"categories":[],"categories_nodes":[],"categories_segments":[],"categories_sizes":[],"default_left":[0,0,0,0,0,0,0,0,0,0,0,0,0,0,0],"id":50,"left_children":[1,3,5,7,9,11,13,-1,-1,-1,-1,-1,-1,-1,-1],"loss_changes":[1.3502444E2,7.40421E1,7.03295E1,5.4932053E1,2.9435575E1,2.1043312E1,2.701387E1,0E0,0E0,0E0,0E0,0E0,0E0,0E0,0E0],"parents":[2147483647,0,0,1,1,2,2,3,3,4,4,5,5,6,6],"right_children":[2,4,6,8,10,12,14,-1,-1,-1,-1,-1,-1,-1,-1],"split_conditions":[3.3333334E-1,3E0,1E0,1E0,2E0,1E0,2E0,-4.7299564E-3,-6.855725E-4,6.799992E-3,-1.1941346E-3,-2.2199634E-3,2.290769E-3,7.355487E-3,2.201448E-3],"split_indices":[8,4,10,9,2,9,2,0,0,0,0,0,0,0,0],"split_type":[0,0,0,0,0,0,0,0,0,0,0,0,0,0,0],"sum_hessian":[9.299956E4,5.924794E4,3.375162E4,5.1672363E4,7.575577E3,1.5908122E4,1.7843498E4,2.6282523E4,2.538984E4,4.752886E3,2.8226912E3,8.0345386E3,7.873583E3,1.2053466E4,5.790032E3],"tree_param":{"num_deleted":"0","num_feature":"12","num_nodes":"15","size_leaf_vector":"1"}},{"base_weights":[2.0533807E-3,-2.1923553E-2,6.560196E-2,-1.1921018E-1,-7.0399605E-3,3.5502058E-2,1.2216977E-1,-1.12445345E-2,-3.387844E-3,-1.9364472E-3,1.6226476E-3,9.373273E-3,1.6282374E-4,1.1787647E-2,4.8630275E-3],"categories":[],"categories_nodes":[],"categories_segments":[],"categories_sizes":[],"default_left":[0,0,0,0,0,0,0,0,0,0,0,0,0,0,0],"id":51,"left_children":[1,3,5,7,9,11,13,-1,-1,-1,-1,-1,-1,-1,-1],"loss_changes":[1.4174683E2,9.780086E1,4.338743E1,3.5941772E1,4.705287E1,6.3248734E1,2.628215E1,0E0,0E0,0E0,0E0,0E0,0E0,0E0,0E0],"parents":[2147483647,0,0,1,1,2,2,3,3,4,4,5,5,6,6],"right_children":[2,4,6,8,10,12,14,-1,-1,-1,-1,-1,-1,-1,-1],"split_conditions":[2E0,2.631579E-1,3E0,1E0,1E0,4E0,6E0,-1.12445345E-2,-3.387844E-3,-1.9364472E-3,1.6226476E-3,9.373273E-3,1.6282374E-4,1.1787647E-2,4.8630275E-3],"split_indices":[0,7,0,9,5,6,6,0,0,0,0,0,0,0,0],"split_type":[0,0,0,0,0,0,0,0,0,0,0,0,0,0,0],"sum_hessian":[9.30261E4,6.7542805E4,2.54833E4,8.961159E3,5.858164E4,1.6633953E4,8.849349E3,4.566629E3,4.3945303E3,3.3893992E4,2.468765E4,3.6811123E3,1.295284E4,3.4657075E3,5.3836416E3],"tree_param":{"num_deleted":"0","num_feature":"12","num_nodes":"15","size_leaf_vector":"1"}},{"base_weights":[-3.689361E-3,-2.5559021E-2,5.4138087E-2,2.1763174E-2,-7.3625736E-2,1.0285918E-1,6.8344143E-3,-3.1200206E-4,4.5581083E-3,-1.1746969E-2,-3.5903538E-3,3.8396881E-3,9.745589E-3,-2.2149764E-3,4.119199E-3],"categories":[],"categories_nodes":[],"categories_segments":[],"categories_sizes":[],"default_left":[0,0,0,0,0,0,0,0,0,0,0,0,0,0,0],"id":52,"left_children":[1,3,5,7,9,11,13,-1,-1,-1,-1,-1,-1,-1,-1],"loss_changes":[1.17687256E2,1.5358823E2,5.885182E1,4.7171722E1,6.1000595E1,2.7954163E1,3.286016E1,0E0,0E0,0E0,0E0,0E0,0E0,0E0,0E0],"parents":[2147483647,0,0,1,1,2,2,3,3,4,4,5,5,6,6],"right_children":[2,4,6,8,10,12,14,-1,-1,-1,-1,-1,-1,-1,-1],"split_conditions":[2E0,1E0,2E0,3.4920636E-1,2.5714287E-1,1E0,3E0,-3.1200206E-4,4.5581083E-3,-1.1746969E-2,-3.5903538E-3,3.8396881E-3,9.745589E-3,-2.2149764E-3,4.119199E-3],"split_indices":[0,1,1,7,7,5,0,0,0,0,0,0,0,0,0],"split_type":[0,0,0,0,0,0,0,0,0,0,0,0,0,0,0],"sum_hessian":[9.305583E4,6.752081E4,2.5535018E4,3.4024184E4,3.3496625E4,1.257847E4,1.2956548E4,2.2416463E4,1.1607721E4,4.0039785E3,2.9492646E4,7.172524E3,5.405946E3,7.559137E3,5.39741E3],"tree_param":{"num_deleted":"0","num_feature":"12","num_nodes":"15","size_leaf_vector":"1"}},{"base_weights":[1.3661875E-3,-4.3097034E-2,3.543697E-2,-7.494271E-4,-1.0508684E-1,7.164759E-2,-2.0020423E-2,-2.4639356E-3,2.6583117E-3,-1.1588491E-2,-4.878299E-3,1.9171834E-3,7.5504924E-3,-3.0260081E-3,3.850882E-3],"categories":[],"categories_nodes":[],"categories_segments":[],"categories_sizes":[],"default_left":[0,0,0,0,0,0,0,0,0,0,0,0,0,0,0],"id":53,"left_children":[1,3,5,7,9,11,13,-1,-1,-1,-1,-1,-1,-1,-1],"loss_changes":[1.4119246E2,1.0614557E2,1.0596754E2,4.0851963E1,3.5447098E1,6.5155914E1,4.9263206E1,0E0,0E0,0E0,0E0,0E0,0E0,0E0,0E0],"parents":[2147483647,0,0,1,1,2,2,3,3,4,4,5,5,6,6],"right_children":[2,4,6,8,10,12,14,-1,-1,-1,-1,-1,-1,-1,-1],"split_conditions":[1E0,1E0,2E0,3.1707317E-1,2.9064038E-1,3.218391E-1,3E0,-2.4639356E-3,2.6583117E-3,-1.1588491E-2,-4.878299E-3,1.9171834E-3,7.5504924E-3,-3.0260081E-3,3.850882E-3],"split_indices":[0,1,1,8,7,8,0,0,0,0,0,0,0,0,0],"split_type":[0,0,0,0,0,0,0,0,0,0,0,0,0,0,0],"sum_hessian":[9.3200695E4,4.0433586E4,5.276711E4,2.4023338E4,1.641025E4,3.1922914E4,2.0844195E4,1.2685487E4,1.133785E4,4.0051653E3,1.2405085E4,1.7610484E4,1.431243E4,1.5435572E4,5.408623E3],"tree_param":{"num_deleted":"0","num_feature":"12","num_nodes":"15","size_leaf_vector":"1"}},{"base_weights":[-7.734181E-5,3.8548343E-2,-2.772525E-2,-1.3786457E-4,1.01558775E-1,-6.270638E-2,2.8188117E-2,-7.32491E-4,7.4840467E-3,4.7607357E-3,9.5000975E-3,-2.061273E-3,-7.696045E-3,-6.4529355E-5,4.769193E-3],"categories":[],"categories_nodes":[],"categories_segments":[],"categories_sizes":[],"default_left":[0,0,0,0,0,0,0,0,0,0,0,0,0,0,0],"id":54,"left_children":[1,3,5,7,9,11,13,-1,-1,-1,-1,-1,-1,-1,-1],"loss_changes":[9.9387596E1,9.464207E1,1.0609286E2,3.3934742E1,1.8893219E1,6.036357E1,2.9727297E1,0E0,0E0,0E0,0E0,0E0,0E0,0E0,0E0],"parents":[2147483647,0,0,1,1,2,2,3,3,4,4,5,5,6,6],"right_children":[2,4,6,8,10,12,14,-1,-1,-1,-1,-1,-1,-1,-1],"split_conditions":[1E0,1E0,2E0,4E0,2E0,2E0,3E0,-7.32491E-4,7.4840467E-3,4.7607357E-3,9.5000975E-3,-2.061273E-3,-7.696045E-3,-6.4529355E-5,4.769193E-3],"split_indices":[1,0,0,11,0,2,0,0,0,0,0,0,0,0,0],"split_type":[0,0,0,0,0,0,0,0,0,0,0,0,0,0,0],"sum_hessian":[9.306458E4,3.8824363E4,5.424022E4,2.4055885E4,1.4768477E4,3.3365566E4,2.0874652E4,2.1937195E4,2.1186904E3,9.98032E3,4.788156E3,2.2546701E4,1.0818863E4,1.3047787E4,7.8268647E3],"tree_param":{"num_deleted":"0","num_feature":"12","num_nodes":"15","size_leaf_vector":"1"}},{"base_weights":[-1.9627581E-3,-3.4593355E-2,4.022968E-2,-4.5766868E-2,7.3203735E-2,6.7663655E-2,-1.6091721E-2,-3.8811315E-3,1.2214071E-3,1.2741661E-2,3.4819206E-3,3.1474493E-3,1.9241696E-2,-1.0752677E-2,8.2704966E-5],"categories":[],"categories_nodes":[],"categories_segments":[],"categories_sizes":[],"default_left":[0,0,0,0,0,0,0,0,0,0,0,0,0,0,0],"id":55,"left_children":[1,3,5,7,9,11,13,-1,-1,-1,-1,-1,-1,-1,-1],"loss_changes":[1.2799874E2,6.3148773E1,6.264778E1,5.230632E1,1.1096064E1,1.1183322E2,3.640561E1,0E0,0E0,0E0,0E0,0E0,0E0,0E0,0E0],"parents":[2147483647,0,0,1,1,2,2,3,3,4,4,5,5,6,6],"right_children":[2,4,6,8,10,12,14,-1,-1,-1,-1,-1,-1,-1,-1],"split_conditions":[3.218391E-1,3E0,2E0,2E0,5E0,4E0,-3E0,-3.8811315E-3,1.2214071E-3,1.2741661E-2,3.4819206E-3,3.1474493E-3,1.9241696E-2,-1.0752677E-2,8.2704966E-5],"split_indices":[8,0,2,4,6,11,4,0,0,0,0,0,0,0,0],"split_type":[0,0,0,0,0,0,0,0,0,0,0,0,0,0,0],"sum_hessian":[9.296868E4,5.24248E4,4.0543875E4,4.7501676E4,4.9231255E3,2.7263643E4,1.3280235E4,3.779157E4,9.7101045E3,5.6101996E2,4.3621055E3,2.5488617E4,1.7750236E3,1.3235076E3,1.1956728E4],"tree_param":{"num_deleted":"0","num_feature":"12","num_nodes":"15","size_leaf_vector":"1"}},{"base_weights":[-1.3310702E-3,-3.9132E-2,3.1054057E-2,-8.689086E-2,-5.8236998E-3,-5.6232557E-2,4.920805E-2,-4.921461E-3,-1.7446205E-2,7.765231E-3,-8.334501E-4,-4.780939E-3,-1.7247938E-4,6.1893306E-4,4.841967E-3],"categories":[],"categories_nodes":[],"categories_segments":[],"categories_sizes":[],"default_left":[0,0,0,0,0,0,0,0,0,0,0,0,0,0,0],"id":56,"left_children":[1,3,5,7,9,11,13,-1,-1,-1,-1,-1,-1,-1,-1],"loss_changes":[1.13460365E2,6.802898E1,7.910118E1,2.5696487E1,2.5149168E1,9.585049E0,4.680253E1,0E0,0E0,0E0,0E0,0E0,0E0,0E0,0E0],"parents":[2147483647,0,0,1,1,2,2,3,3,4,4,5,5,6,6],"right_children":[2,4,6,8,10,12,14,-1,-1,-1,-1,-1,-1,-1,-1],"split_conditions":[1E0,3.031496E-1,2.6714802E-1,3.0131003E-1,3.071553E-1,2E0,1E0,-4.921461E-3,-1.7446205E-2,7.765231E-3,-8.334501E-4,-4.780939E-3,-1.7247938E-4,6.1893306E-4,4.841967E-3],"split_indices":[10,8,8,8,8,0,0,0,0,0,0,0,0,0,0],"split_type":[0,0,0,0,0,0,0,0,0,0,0,0,0,0,0],"sum_hessian":[9.2680164E4,4.2764223E4,4.9915938E4,1.7569998E4,2.5194225E4,8.5938E3,4.1322137E4,1.6916518E4,6.5348175E2,1.3830304E3,2.3811193E4,6.1807163E3,2.4130835E3,1.752037E4,2.380177E4],"tree_param":{"num_deleted":"0","num_feature":"12","num_nodes":"15","size_leaf_vector":"1"}},{"base_weights":[2.9843405E-4,1.977538E-2,-5.0137747E-2,-1.6137052E-2,5.935955E-2,-1.05780646E-1,4.8275855E-3,7.553153E-4,-4.608045E-3,1.6162299E-3,6.447554E-3,-4.556323E-3,-1.07674515E-2,-1.6291816E-3,2.9829463E-3],"categories":[],"categories_nodes":[],"categories_segments":[],"categories_sizes":[],"default_left":[0,0,0,0,0,0,0,0,0,0,0,0,0,0,0],"id":57,"left_children":[1,3,5,7,9,11,13,-1,-1,-1,-1,-1,-1,-1,-1],"loss_changes":[9.1260376E1,9.5273766E1,7.915579E1,5.788669E1,4.7354317E1,2.8180313E1,1.7525196E1,0E0,0E0,0E0,0E0,0E0,0E0,0E0,0E0],"parents":[2147483647,0,0,1,1,2,2,3,3,4,4,5,5,6,6],"right_children":[2,4,6,8,10,12,14,-1,-1,-1,-1,-1,-1,-1,-1],"split_conditions":[2E0,1E0,2E0,2E0,1E0,2E0,3E0,7.553153E-4,-4.608045E-3,1.6162299E-3,6.447554E-3,-4.556323E-3,-1.07674515E-2,-1.6291816E-3,2.9829463E-3],"split_indices":[1,0,0,2,11,2,0,0,0,0,0,0,0,0,0],"split_type":[0,0,0,0,0,0,0,0,0,0,0,0,0,0,0],"sum_hessian":[9.2898734E4,6.701872E4,2.5880016E4,3.5139383E4,3.1879336E4,1.286028E4,1.3019736E4,2.3635023E4,1.1504358E4,1.825596E4,1.3623374E4,8.713756E3,4.1465244E3,7.575797E3,5.4439395E3],"tree_param":{"num_deleted":"0","num_feature":"12","num_nodes":"15","size_leaf_vector":"1"}},{"base_weights":[-2.1321499E-3,-3.6801584E-2,2.743802E-2,-5.6442607E-2,1.7738383E-2,5.0097603E-2,-1.9764705E-2,-2.2093833E-3,-6.093347E-3,4.093558E-3,-8.404001E-4,2.0539253E-3,6.7992634E-3,-4.3521533E-3,1.0648859E-3],"categories":[],"categories_nodes":[],"categories_segments":[],"categories_sizes":[],"default_left":[0,0,0,0,0,0,0,0,0,0,0,0,0,0,0],"id":58,"left_children":[1,3,5,7,9,11,13,-1,-1,-1,-1,-1,-1,-1,-1],"loss_changes":[9.5169235E1,4.5775734E1,5.358797E1,2.7342857E1,1.709225E1,3.421525E1,3.026443E1,0E0,0E0,0E0,0E0,0E0,0E0,0E0,0E0],"parents":[2147483647,0,0,1,1,2,2,3,3,4,4,5,5,6,6],"right_children":[2,4,6,8,10,12,14,-1,-1,-1,-1,-1,-1,-1,-1],"split_conditions":[1E0,2E0,2E0,2E0,5E0,2E0,1E0,-2.2093833E-3,-6.093347E-3,4.093558E-3,-8.404001E-4,2.0539253E-3,6.7992634E-3,-4.3521533E-3,1.0648859E-3],"split_indices":[10,0,2,2,6,4,0,0,0,0,0,0,0,0,0],"split_type":[0,0,0,0,0,0,0,0,0,0,0,0,0,0,0],"sum_hessian":[9.282966E4,4.273036E4,5.0099293E4,3.1416545E4,1.1313813E4,3.384973E4,1.6249563E4,2.0977377E4,1.0439168E4,4.448974E3,6.8648394E3,2.6341627E4,7.5081045E3,6.8705557E3,9.379008E3],"tree_param":{"num_deleted":"0","num_feature":"12","num_nodes":"15","size_leaf_vector":"1"}},{"base_weights":[7.193439E-4,-2.8289553E-2,3.6990587E-2,-1.7378892E-1,-2.2062572E-2,-6.568505E-2,5.581701E-2,-1.282861E-2,2.816558E-2,6.960474E-4,-2.8467716E-3,-8.929873E-3,-6.8449415E-5,4.8107123E-3,6.200198E-4],"categories":[],"categories_nodes":[],"categories_segments":[],"categories_sizes":[],"default_left":[0,0,0,0,0,0,0,0,0,0,0,0,0,0,0],"id":59,"left_children":[1,3,5,7,9,11,13,-1,-1,-1,-1,-1,-1,-1,-1],"loss_changes":[9.763663E1,4.6709316E1,7.971211E1,4.4054604E1,3.924429E1,3.2318306E1,3.474218E1,0E0,0E0,0E0,0E0,0E0,0E0,0E0,0E0],"parents":[2147483647,0,0,1,1,2,2,3,3,4,4,5,5,6,6],"right_children":[2,4,6,8,10,12,14,-1,-1,-1,-1,-1,-1,-1,-1],"split_conditions":[3.3561644E-1,1.2962963E-1,2.616034E-1,4.8E-1,1E0,3.6666667E-1,2E0,-1.282861E-2,2.816558E-2,6.960474E-4,-2.8467716E-3,-8.929873E-3,-6.8449415E-5,4.8107123E-3,6.200198E-4],"split_indices":[7,7,8,8,1,7,2,0,0,0,0,0,0,0,0],"split_type":[0,0,0,0,0,0,0,0,0,0,0,0,0,0,0],"sum_hessian":[9.279184E4,5.155754E4,4.12343E4,2.1148613E3,4.944268E4,6.38876E3,3.484554E4,2.0096556E3,1.0520572E2,2.063562E4,2.8807059E4,2.886758E3,3.502002E3,2.3624852E4,1.1220689E4],"tree_param":{"num_deleted":"0","num_feature":"12","num_nodes":"15","size_leaf_vector":"1"}},{"base_weights":[1.1476576E-3,-3.3026285E-2,3.0366357E-2,-4.3369267E-2,7.124408E-2,-5.2703977E-2,4.8023038E-2,-5.230339E-3,-9.042473E-4,8.4242085E-3,2.1187337E-3,-5.3407596E-3,9.816742E-4,6.8474613E-4,5.3542075E-3],"categories":[],"categories_nodes":[],"categories_segments":[],"categories_sizes":[],"default_left":[0,0,0,0,0,0,0,0,0,0,0,0,0,0,0],"id":60,"left_children":[1,3,5,7,9,11,13,-1,-1,-1,-1,-1,-1,-1,-1],"loss_changes":[9.272597E1,4.616398E1,7.342966E1,4.5931404E1,9.248571E0,2.0102222E1,5.8504234E1,0E0,0E0,0E0,0E0,0E0,0E0,0E0,0E0],"parents":[2147483647,0,0,1,1,2,2,3,3,4,4,5,5,6,6],"right_children":[2,4,6,8,10,12,14,-1,-1,-1,-1,-1,-1,-1,-1],"split_conditions":[1E0,3E0,2.6811594E-1,3.2047477E-1,3.167702E-1,3.5014838E-1,1E0,-5.230339E-3,-9.042473E-4,8.4242085E-3,2.1187337E-3,-5.3407596E-3,9.816742E-4,6.8474613E-4,5.3542075E-3],"split_indices":[10,0,8,7,7,7,9,0,0,0,0,0,0,0,0],"split_type":[0,0,0,0,0,0,0,0,0,0,0,0,0,0,0],"sum_hessian":[9.286157E4,4.2801344E4,5.0060223E4,3.8939383E4,3.8619639E3,8.774829E3,4.1285395E4,1.6067526E4,2.2871855E4,1.4072635E3,2.4547002E3,5.8982734E3,2.8765557E3,2.1010105E4,2.027529E4],"tree_param":{"num_deleted":"0","num_feature":"12","num_nodes":"15","size_leaf_vector":"1"}},{"base_weights":[-6.719937E-4,1.7679317E-2,-4.8197508E-2,8.7774405E-3,1.0766535E-1,-1.4176877E-1,-3.684638E-2,-3.7576753E-4,3.80282E-3,1.7834757E-2,-2.9036086E-3,-1.0750358E-2,-1.0025401E-3,-2.3622182E-3,4.609173E-2],"categories":[],"categories_nodes":[],"categories_segments":[],"categories_sizes":[],"default_left":[0,0,0,0,0,0,0,0,0,0,0,0,0,0,0],"id":61,"left_children":[1,3,5,7,9,11,13,-1,-1,-1,-1,-1,-1,-1,-1],"loss_changes":[8.086707E1,5.3582275E1,2.7429062E1,4.745785E1,1.6740059E2,1.1083534E1,2.2431822E1,0E0,0E0,0E0,0E0,0E0,0E0,0E0,0E0],"parents":[2147483647,0,0,1,1,2,2,3,3,4,4,5,5,6,6],"right_children":[2,4,6,8,10,12,14,-1,-1,-1,-1,-1,-1,-1,-1],"split_conditions":[2E0,4E0,2.5263157E-1,3.681592E-1,2E0,8E0,1.3E1,-3.7576753E-4,3.80282E-3,1.7834757E-2,-2.9036086E-3,-1.0750358E-2,-1.0025401E-3,-2.3622182E-3,4.609173E-2],"split_indices":[1,11,7,7,2,3,4,0,0,0,0,0,0,0,0],"split_type":[0,0,0,0,0,0,0,0,0,0,0,0,0,0,0],"sum_hessian":[9.271896E4,6.689069E4,2.5828271E4,6.0870195E4,6.020492E3,2.7930134E3,2.3035258E4,4.746803E4,1.3402164E4,2.7807815E3,3.2397104E3,2.2313982E3,5.616153E2,2.2999455E4,3.5802372E1],"tree_param":{"num_deleted":"0","num_feature":"12","num_nodes":"15","size_leaf_vector":"1"}},{"base_weights":[1.4636983E-4,-3.0503577E-2,2.6291242E-2,-1.8169847E-1,-2.1364763E-2,1.6609292E-2,1.2866281E-1,-1.9321634E-2,-4.512815E-3,-3.1936832E-3,1.1380124E-3,-1.8686258E-4,4.129178E-3,7.228948E-3,2.8438501E-2],"categories":[],"categories_nodes":[],"categories_segments":[],"categories_sizes":[],"default_left":[0,0,0,0,0,0,0,0,0,0,0,0,0,0,0],"id":62,"left_children":[1,3,5,7,9,11,13,-1,-1,-1,-1,-1,-1,-1,-1],"loss_changes":[7.432666E1,5.899354E1,4.961041E1,3.4406128E1,4.819477E1,4.4848625E1,1.719677E1,0E0,0E0,0E0,0E0,0E0,0E0,0E0,0E0],"parents":[2147483647,0,0,1,1,2,2,3,3,4,4,5,5,6,6],"right_children":[2,4,6,8,10,12,14,-1,-1,-1,-1,-1,-1,-1,-1],"split_conditions":[1E0,2.2222222E-1,4E0,5E0,1E0,2E0,1E1,-1.9321634E-2,-4.512815E-3,-3.1936832E-3,1.1380124E-3,-1.8686258E-4,4.129178E-3,7.228948E-3,2.8438501E-2],"split_indices":[10,7,11,3,11,0,3,0,0,0,0,0,0,0,0],"split_type":[0,0,0,0,0,0,0,0,0,0,0,0,0,0,0],"sum_hessian":[9.2751086E4,4.269687E4,5.005422E4,2.4325896E3,4.026428E4,4.5730363E4,4.323857E3,1.1087108E3,1.3238788E3,2.289297E4,1.737131E4,3.283813E4,1.2892233E4,4.1723325E3,1.5152463E2],"tree_param":{"num_deleted":"0","num_feature":"12","num_nodes":"15","size_leaf_vector":"1"}},{"base_weights":[-2.2454944E-3,-4.5646783E-2,1.9957118E-2,-6.319833E-2,2.2031248E-2,-9.290729E-3,4.4571616E-2,-1.663449E-2,-3.557364E-3,1.0747483E-2,3.9707674E-4,-1.10077085E-2,5.042678E-5,7.766776E-4,4.8334515E-3],"categories":[],"categories_nodes":[],"categories_segments":[],"categories_sizes":[],"default_left":[0,0,0,0,0,0,0,0,0,0,0,0,0,0,0],"id":63,"left_children":[1,3,5,7,9,11,13,-1,-1,-1,-1,-1,-1,-1,-1],"loss_changes":[8.9398796E1,3.7297394E1,4.4186264E1,2.9801872E1,1.5287407E1,4.7674156E1,3.56428E1,0E0,0E0,0E0,0E0,0E0,0E0,0E0,0E0],"parents":[2147483647,0,0,1,1,2,2,3,3,4,4,5,5,6,6],"right_children":[2,4,6,8,10,12,14,-1,-1,-1,-1,-1,-1,-1,-1],"split_conditions":[2.951807E-1,2E0,1E0,1.6666667E-1,1.8181819E-1,2.2222222E-1,1E0,-1.663449E-2,-3.557364E-3,1.0747483E-2,3.9707674E-4,-1.10077085E-2,5.042678E-5,7.766776E-4,4.8334515E-3],"split_indices":[8,4,10,7,8,7,9,0,0,0,0,0,0,0,0],"split_type":[0,0,0,0,0,0,0,0,0,0,0,0,0,0,0],"sum_hessian":[9.277177E4,3.1396797E4,6.137498E4,2.4931227E4,6.4655703E3,2.8047973E4,3.3327008E4,6.8828955E2,2.4242938E4,6.044345E2,5.861136E3,1.5882793E3,2.6459693E4,1.7001826E4,1.6325181E4],"tree_param":{"num_deleted":"0","num_feature":"12","num_nodes":"15","size_leaf_vector":"1"}},{"base_weights":[1.2795401E-3,1.8548217E-2,-4.3594606E-2,-2.2151612E-3,6.1390445E-2,-1.2951976E-1,-2.7361305E-2,1.2125018E-3,-4.2715403E-3,7.216042E-3,2.84654E-3,-8.4757935E-3,1.6770296E-2,-2.6834544E-3,1.3072648E-3],"categories":[],"categories_nodes":[],"categories_segments":[],"categories_sizes":[],"default_left":[0,0,0,0,0,0,0,0,0,0,0,0,0,0,0],"id":64,"left_children":[1,3,5,7,9,11,13,-1,-1,-1,-1,-1,-1,-1,-1],"loss_changes":[7.195225E1,5.964376E1,3.5986664E1,6.5542015E1,1.8630035E1,1.1778343E1,1.6730162E1,0E0,0E0,0E0,0E0,0E0,0E0,0E0,0E0],"parents":[2147483647,0,0,1,1,2,2,3,3,4,4,5,5,6,6],"right_children":[2,4,6,8,10,12,14,-1,-1,-1,-1,-1,-1,-1,-1],"split_conditions":[2E0,3E0,4E0,1E0,1E0,8E0,2E0,1.2125018E-3,-4.2715403E-3,7.216042E-3,2.84654E-3,-8.4757935E-3,1.6770296E-2,-2.6834544E-3,1.3072648E-3],"split_indices":[1,6,6,1,1,4,4,0,0,0,0,0,0,0,0],"split_type":[0,0,0,0,0,0,0,0,0,0,0,0,0,0,0],"sum_hessian":[9.284949E4,6.704826E4,2.5801234E4,4.51617E4,2.1886557E4,4.0987886E3,2.1702447E4,3.4045918E4,1.111578E4,4.809119E3,1.7077438E4,4.0273442E3,7.144418E1,1.6336463E4,5.365984E3],"tree_param":{"num_deleted":"0","num_feature":"12","num_nodes":"15","size_leaf_vector":"1"}},{"base_weights":[-1.3052302E-3,-3.3809416E-2,2.3589043E-2,-1.7704788E-3,-8.146471E-2,-4.02644E-2,3.6773108E-2,-1.7656502E-3,3.448399E-3,-5.11361E-3,6.213561E-2,-3.9864364E-3,3.281094E-3,5.7502824E-4,4.017106E-3],"categories":[],"categories_nodes":[],"categories_segments":[],"categories_sizes":[],"default_left":[0,0,0,0,0,0,0,0,0,0,0,0,0,0,0],"id":65,"left_children":[1,3,5,7,9,11,13,-1,-1,-1,-1,-1,-1,-1,-1],"loss_changes":[7.498693E1,6.1366898E1,4.418089E1,3.682738E1,1.7539413E1,2.0105543E1,3.3501312E1,0E0,0E0,0E0,0E0,0E0,0E0,0E0,0E0],"parents":[2147483647,0,0,1,1,2,2,3,3,4,4,5,5,6,6],"right_children":[2,4,6,8,10,12,14,-1,-1,-1,-1,-1,-1,-1,-1],"split_conditions":[1E0,2E0,2.6666668E-1,3.3870968E-1,1.4E1,2E0,1E0,-1.7656502E-3,3.448399E-3,-5.11361E-3,6.213561E-2,-3.9864364E-3,3.281094E-3,5.7502824E-4,4.017106E-3],"split_indices":[0,6,8,8,4,4,9,0,0,0,0,0,0,0,0],"split_type":[0,0,0,0,0,0,0,0,0,0,0,0,0,0,0],"sum_hessian":[9.266966E4,4.0191582E4,5.247808E4,2.4034248E4,1.6157332E4,8.980655E3,4.349742E4,1.6401879E4,7.632369E3,1.6143399E4,1.3933299E1,7.140209E3,1.8404464E3,2.1947773E4,2.1549646E4],"tree_param":{"num_deleted":"0","num_feature":"12","num_nodes":"15","size_leaf_vector":"1"}},{"base_weights":[-1.2899779E-3,-1.8122675E-2,4.2761E-2,-1.5883304E-1,-1.26163E-2,1.2024037E-1,2.9570188E-2,-1.3400281E-2,4.3560454E-4,-1.3090216E-3,4.636391E-3,6.372982E-3,1.7179485E-2,-2.8856337E-4,4.9461364E-3],"categories":[],"categories_nodes":[],"categories_segments":[],"categories_sizes":[],"default_left":[0,0,0,0,0,0,0,0,0,0,0,0,0,0,0],"id":66,"left_children":[1,3,5,7,9,11,13,-1,-1,-1,-1,-1,-1,-1,-1],"loss_changes":[6.891199E1,5.2097282E1,2.6256538E1,2.4049309E1,4.8025555E1,1.0209923E1,3.771737E1,0E0,0E0,0E0,0E0,0E0,0E0,0E0,0E0],"parents":[2147483647,0,0,1,1,2,2,3,3,4,4,5,5,6,6],"right_children":[2,4,6,8,10,12,14,-1,-1,-1,-1,-1,-1,-1,-1],"split_conditions":[2E0,1.875E-1,4E0,7E0,4E0,3.97351E-1,3E0,-1.3400281E-2,4.3560454E-4,-1.3090216E-3,4.636391E-3,6.372982E-3,1.7179485E-2,-2.8856337E-4,4.9461364E-3],"split_indices":[0,7,6,3,11,7,0,0,0,0,0,0,0,0,0],"split_type":[0,0,0,0,0,0,0,0,0,0,0,0,0,0,0],"sum_hessian":[9.293428E4,6.724088E4,2.56934E4,2.5311753E3,6.4709707E4,3.7367278E3,2.1956672E4,1.8813654E3,6.4981E2,5.8978223E4,5.731481E3,3.3636135E3,3.7311432E2,1.3055484E4,8.901188E3],"tree_param":{"num_deleted":"0","num_feature":"12","num_nodes":"15","size_leaf_vector":"1"}},{"base_weights":[-1.8929903E-4,1.7192218E-2,-4.5344528E-2,-1.3617555E-2,5.1110975E-2,-6.884775E-2,4.2937357E-2,-1.4706467E-3,5.6543E-3,1.3499549E-3,5.613041E-3,-6.151845E-3,-1.1356155E-3,3.333101E-3,-3.5867705E-3],"categories":[],"categories_nodes":[],"categories_segments":[],"categories_sizes":[],"default_left":[0,0,0,0,0,0,0,0,0,0,0,0,0,0,0],"id":67,"left_children":[1,3,5,7,9,11,13,-1,-1,-1,-1,-1,-1,-1,-1],"loss_changes":[7.276539E1,6.995756E1,5.3469307E1,3.7125565E1,3.683892E1,3.1217407E1,5.9071217E0,0E0,0E0,0E0,0E0,0E0,0E0,0E0,0E0],"parents":[2147483647,0,0,1,1,2,2,3,3,4,4,5,5,6,6],"right_children":[2,4,6,8,10,12,14,-1,-1,-1,-1,-1,-1,-1,-1],"split_conditions":[2E0,1E0,3E0,4E0,1E0,3.433396E-1,4E0,-1.4706467E-3,5.6543E-3,1.3499549E-3,5.613041E-3,-6.151845E-3,-1.1356155E-3,3.333101E-3,-3.5867705E-3],"split_indices":[1,0,0,11,5,7,11,0,0,0,0,0,0,0,0],"split_type":[0,0,0,0,0,0,0,0,0,0,0,0,0,0,0],"sum_hessian":[9.270854E4,6.69415E4,2.5767047E4,3.50787E4,3.1862797E4,2.0349605E4,5.4174414E3,3.1996408E4,3.0822903E3,1.826431E4,1.3598486E4,1.2712286E4,7.6373184E3,4.8929585E3,5.2448285E2],"tree_param":{"num_deleted":"0","num_feature":"12","num_nodes":"15","size_leaf_vector":"1"}},{"base_weights":[-2.653181E-3,-4.5097236E-2,1.9082973E-2,-7.63978E-2,-1.7680282E-2,4.141077E-3,5.794254E-2,-6.801703E-3,-1.9083053E-3,-3.1388318E-3,1.0499515E-3,1.4144833E-3,-2.1484839E-3,2.2917618E-3,5.389653E-3],"categories":[],"categories_nodes":[],"categories_segments":[],"categories_sizes":[],"default_left":[0,0,0,0,0,0,0,0,0,0,0,0,0,0,0],"id":68,"left_children":[1,3,5,7,9,11,13,-1,-1,-1,-1,-1,-1,-1,-1],"loss_changes":[8.558439E1,2.696037E1,3.5621483E1,2.2274895E1,1.9094727E1,3.208813E1,1.0355465E1,0E0,0E0,0E0,0E0,0E0,0E0,0E0,0E0],"parents":[2147483647,0,0,1,1,2,2,3,3,4,4,5,5,6,6],"right_children":[2,4,6,8,10,12,14,-1,-1,-1,-1,-1,-1,-1,-1],"split_conditions":[2.951807E-1,1E0,2E0,1E0,2.6714802E-1,2E0,1E0,-6.801703E-3,-1.9083053E-3,-3.1388318E-3,1.0499515E-3,1.4144833E-3,-2.1484839E-3,2.2917618E-3,5.389653E-3],"split_indices":[8,10,0,5,8,2,5,0,0,0,0,0,0,0,0],"split_type":[0,0,0,0,0,0,0,0,0,0,0,0,0,0,0],"sum_hessian":[9.276538E4,3.1416838E4,6.1348547E4,1.4668622E4,1.6748215E4,4.4311453E4,1.7037094E4,8.480282E3,6.18834E3,8.581571E3,8.1666445E3,2.9913951E4,1.4397501E4,9.881479E3,7.1556147E3],"tree_param":{"num_deleted":"0","num_feature":"12","num_nodes":"15","size_leaf_vector":"1"}},{"base_weights":[1.2203363E-3,-2.7731389E-2,2.3328232E-2,-3.6727175E-2,6.4904794E-2,7.979796E-3,6.905528E-2,-4.0616198E-3,-7.0708565E-4,1.25351E-2,-3.5914343E-3,-5.690888E-4,2.053647E-3,3.5378227E-3,7.841244E-3],"categories":[],"categories_nodes":[],"categories_segments":[],"categories_sizes":[],"default_left":[0,0,0,0,0,0,0,0,0,0,0,0,0,0,0],"id":69,"left_children":[1,3,5,7,9,11,13,-1,-1,-1,-1,-1,-1,-1,-1],"loss_changes":[5.924265E1,3.3398994E1,3.6833252E1,2.661449E1,5.9807693E1,1.694696E1,9.079357E0,0E0,0E0,0E0,0E0,0E0,0E0,0E0,0E0],"parents":[2147483647,0,0,1,1,2,2,3,3,4,4,5,5,6,6],"right_children":[2,4,6,8,10,12,14,-1,-1,-1,-1,-1,-1,-1,-1],"split_conditions":[1E0,4E0,2E0,1E0,2E0,1E0,3E0,-4.0616198E-3,-7.0708565E-4,1.25351E-2,-3.5914343E-3,-5.690888E-4,2.053647E-3,3.5378227E-3,7.841244E-3],"split_indices":[0,11,4,10,2,5,0,0,0,0,0,0,0,0,0],"split_type":[0,0,0,0,0,0,0,0,0,0,0,0,0,0,0],"sum_hessian":[9.25557E4,4.007484E4,5.248086E4,3.652823E4,3.5466077E3,3.9293156E4,1.3187702E4,1.710004E4,1.9428191E4,1.6747001E3,1.8719076E3,2.3354E4,1.5939158E4,1.0908095E4,2.279608E3],"tree_param":{"num_deleted":"0","num_feature":"12","num_nodes":"15","size_leaf_vector":"1"}},{"base_weights":[2.2655769E-4,3.3406764E-2,-2.3658453E-2,7.4480637E-3,7.562537E-2,-8.43737E-2,-1.0141283E-2,-3.014863E-3,1.4593799E-3,3.2823891E-3,9.467565E-3,3.9548473E-4,-6.6168485E-3,-6.104428E-3,7.3797505E-6],"categories":[],"categories_nodes":[],"categories_segments":[],"categories_sizes":[],"default_left":[0,0,0,0,0,0,0,0,0,0,0,0,0,0,0],"id":70,"left_children":[1,3,5,7,9,11,13,-1,-1,-1,-1,-1,-1,-1,-1],"loss_changes":[7.3299164E1,4.242575E1,4.4134407E1,2.1621992E1,2.5764397E1,1.9844078E1,3.9850185E1,0E0,0E0,0E0,0E0,0E0,0E0,0E0,0E0],"parents":[2147483647,0,0,1,1,2,2,3,3,4,4,5,5,6,6],"right_children":[2,4,6,8,10,12,14,-1,-1,-1,-1,-1,-1,-1,-1],"split_conditions":[1E0,2E0,2.6811594E-1,2.8834355E-1,3.6734694E-1,2.020202E-1,2.5263157E-1,-3.014863E-3,1.4593799E-3,3.2823891E-3,9.467565E-3,3.9548473E-4,-6.6168485E-3,-6.104428E-3,7.3797505E-6],"split_indices":[1,6,8,7,7,8,7,0,0,0,0,0,0,0,0],"split_type":[0,0,0,0,0,0,0,0,0,0,0,0,0,0,0],"sum_hessian":[9.2487945E4,3.8711254E4,5.377669E4,2.3972562E4,1.4738688E4,9.79138E3,4.398531E4,5.344122E3,1.8628441E4,1.1386581E4,3.3521074E3,1.9335829E3,7.8577974E3,4.57812E3,3.9407188E4],"tree_param":{"num_deleted":"0","num_feature":"12","num_nodes":"15","size_leaf_vector":"1"}},{"base_weights":[3.168776E-3,3.0529654E-2,-1.650986E-2,1.8443085E-2,1.1672516E-1,-1.1791429E-3,-4.7996778E-2,6.169095E-4,6.4328024E-3,5.9154565E-3,1.3569293E-2,-2.16711E-3,3.8321503E-3,-1.0351641E-2,-2.1142843E-3],"categories":[],"categories_nodes":[],"categories_segments":[],"categories_sizes":[],"default_left":[0,0,0,0,0,0,0,0,0,0,0,0,0,0,0],"id":71,"left_children":[1,3,5,7,9,11,13,-1,-1,-1,-1,-1,-1,-1,-1],"loss_changes":[4.986432E1,4.0360924E1,2.6003067E1,2.4618795E1,1.0355606E1,7.704679E1,2.9159435E1,0E0,0E0,0E0,0E0,0E0,0E0,0E0,0E0],"parents":[2147483647,0,0,1,1,2,2,3,3,4,4,5,5,6,6],"right_children":[2,4,6,8,10,12,14,-1,-1,-1,-1,-1,-1,-1,-1],"split_conditions":[1E0,3E0,2E0,4E0,3E0,1E0,-3E0,6.169095E-4,6.4328024E-3,5.9154565E-3,1.3569293E-2,-2.16711E-3,3.8321503E-3,-1.0351641E-2,-2.1142843E-3],"split_indices":[1,6,2,11,11,5,4,0,0,0,0,0,0,0,0],"split_type":[0,0,0,0,0,0,0,0,0,0,0,0,0,0,0],"sum_hessian":[9.2609555E4,3.8742297E4,5.3867254E4,3.39789E4,4.7634E3,3.6228793E4,1.763846E4,3.0902244E4,3.076654E3,3.941697E3,8.2170294E2,2.358374E4,1.2645054E4,1.844808E3,1.5793652E4],"tree_param":{"num_deleted":"0","num_feature":"12","num_nodes":"15","size_leaf_vector":"1"}},{"base_weights":[3.5302463E-4,-2.3284165E-2,2.9340437E-2,-3.2725748E-2,6.955703E-2,4.339677E-2,-2.6350362E-2,-9.336281E-4,-5.4104803E-3,5.3850794E-3,-2.439042E-3,1.1765526E-3,4.8603117E-3,-1.2526026E-3,-3.0217497E-2],"categories":[],"categories_nodes":[],"categories_segments":[],"categories_sizes":[],"default_left":[0,0,0,0,0,0,0,0,0,0,0,0,0,0,0],"id":72,"left_children":[1,3,5,7,9,11,13,-1,-1,-1,-1,-1,-1,-1,-1],"loss_changes":[6.3471245E1,4.4730103E1,3.257237E1,4.4621716E1,8.867929E0,2.8382767E1,2.3766165E1,0E0,0E0,0E0,0E0,0E0,0E0,0E0,0E0],"parents":[2147483647,0,0,1,1,2,2,3,3,4,4,5,5,6,6],"right_children":[2,4,6,8,10,12,14,-1,-1,-1,-1,-1,-1,-1,-1],"split_conditions":[3.3510637E-1,3E0,8E0,2E0,3.271605E-1,1E0,6E-1,-9.336281E-4,-5.4104803E-3,5.3850794E-3,-2.439042E-3,1.1765526E-3,4.8603117E-3,-1.2526026E-3,-3.0217497E-2],"split_indices":[7,0,3,1,7,5,7,0,0,0,0,0,0,0,0],"split_type":[0,0,0,0,0,0,0,0,0,0,0,0,0,0,0],"sum_hessian":[9.263227E4,5.10251E4,4.1607176E4,4.6315633E4,4.709468E3,3.322214E4,8.385033E3,3.4980375E4,1.133526E4,4.0645562E3,6.449118E2,1.9563922E4,1.3658221E4,8.275644E3,1.09390335E2],"tree_param":{"num_deleted":"0","num_feature":"12","num_nodes":"15","size_leaf_vector":"1"}},{"base_weights":[-2.3714816E-3,-1.0369849E-2,7.373275E-2,2.1396197E-2,-3.6343176E-2,1.1842645E-1,4.5560718E-2,2.5371616E-3,-1.1423992E-3,-4.9369927E-3,-8.18604E-4,4.425133E-3,9.681798E-3,1.3948009E-2,2.1659408E-3],"categories":[],"categories_nodes":[],"categories_segments":[],"categories_sizes":[],"default_left":[0,0,0,0,0,0,0,0,0,0,0,0,0,0,0],"id":73,"left_children":[1,3,5,7,9,11,13,-1,-1,-1,-1,-1,-1,-1,-1],"loss_changes":[5.627974E1,6.902963E1,1.1065907E1,2.925047E1,4.6092007E1,6.020378E0,1.028115E1,0E0,0E0,0E0,0E0,0E0,0E0,0E0,0E0],"parents":[2147483647,0,0,1,1,2,2,3,3,4,4,5,5,6,6],"right_children":[2,4,6,8,10,12,14,-1,-1,-1,-1,-1,-1,-1,-1],"split_conditions":[3E0,1E0,2E0,2E0,1E0,5E0,2.2429906E-1,2.5371616E-3,-1.1423992E-3,-4.9369927E-3,-8.18604E-4,4.425133E-3,9.681798E-3,1.3948009E-2,2.1659408E-3],"split_indices":[0,1,1,2,0,3,7,0,0,0,0,0,0,0,0],"split_type":[0,0,0,0,0,0,0,0,0,0,0,0,0,0,0],"sum_hessian":[9.245519E4,8.366325E4,8.791938E3,3.7634934E4,4.6028316E4,3.3979832E3,5.393955E3,2.5255389E4,1.2379546E4,1.6038276E4,2.9990041E4,1.5125753E3,1.885408E3,3.0073514E2,5.0932197E3],"tree_param":{"num_deleted":"0","num_feature":"12","num_nodes":"15","size_leaf_vector":"1"}},{"base_weights":[-6.166811E-4,-1.7929798E-2,3.678354E-2,-3.1250697E-2,3.1187017E-2,-4.7931825E-3,7.331335E-2,-4.482474E-3,-1.0171492E-3,9.017218E-3,1.2520567E-3,-1.2630627E-2,4.160575E-4,6.842851E-3,2.8244709E-3],"categories":[],"categories_nodes":[],"categories_segments":[],"categories_sizes":[],"default_left":[0,0,0,0,0,0,0,0,0,0,0,0,0,0,0],"id":74,"left_children":[1,3,5,7,9,11,13,-1,-1,-1,-1,-1,-1,-1,-1],"loss_changes":[5.981714E1,4.1317215E1,4.4397583E1,3.0264927E1,1.6919731E1,3.1280071E1,1.5995712E1,0E0,0E0,0E0,0E0,0E0,0E0,0E0,0E0],"parents":[2147483647,0,0,1,1,2,2,3,3,4,4,5,5,6,6],"right_children":[2,4,6,8,10,12,14,-1,-1,-1,-1,-1,-1,-1,-1],"split_conditions":[3.3870968E-1,2E0,1E0,2.6811594E-1,2.173913E-1,-5E0,1E0,-4.482474E-3,-1.0171492E-3,9.017218E-3,1.2520567E-3,-1.2630627E-2,4.160575E-4,6.842851E-3,2.8244709E-3],"split_indices":[8,4,10,8,8,4,1,0,0,0,0,0,0,0,0],"split_type":[0,0,0,0,0,0,0,0,0,0,0,0,0,0,0],"sum_hessian":[9.237761E4,6.314662E4,2.9230988E4,4.967476E4,1.3471856E4,1.3671509E4,1.55594795E4,1.3197941E4,3.647682E4,1.1819741E3,1.2289882E4,7.4653864E2,1.292497E4,6.66576E3,8.89372E3],"tree_param":{"num_deleted":"0","num_feature":"12","num_nodes":"15","size_leaf_vector":"1"}},{"base_weights":[-1.0116694E-3,-1.3891039E-2,4.4010434E-2,-2.4428269E-2,4.12301E-2,5.0450835E-2,-2.0371796E-1,-3.929389E-5,-2.5710473E-3,-1.7491013E-2,3.391927E-3,2.873162E-3,1.7963886E-2,-3.9797034E-3,-3.1115964E-2],"categories":[],"categories_nodes":[],"categories_segments":[],"categories_sizes":[],"default_left":[0,0,0,0,0,0,0,0,0,0,0,0,0,0,0],"id":75,"left_children":[1,3,5,7,9,11,13,-1,-1,-1,-1,-1,-1,-1,-1],"loss_changes":[5.376257E1,4.1874588E1,3.291463E1,2.4529026E1,5.039323E1,1.9791882E1,2.1710945E1,0E0,0E0,0E0,0E0,0E0,0E0,0E0,0E0],"parents":[2147483647,0,0,1,1,2,2,3,3,4,4,5,5,6,6],"right_children":[2,4,6,8,10,12,14,-1,-1,-1,-1,-1,-1,-1,-1],"split_conditions":[3.6734694E-1,3E0,6E-1,1E0,1.6666667E-1,8E0,7E0,-3.929389E-5,-2.5710473E-3,-1.7491013E-2,3.391927E-3,2.873162E-3,1.7963886E-2,-3.9797034E-3,-3.1115964E-2],"split_indices":[7,11,7,1,7,4,3,0,0,0,0,0,0,0,0],"split_type":[0,0,0,0,0,0,0,0,0,0,0,0,0,0,0],"sum_hessian":[9.2715E4,7.209239E4,2.0622611E4,6.052306E4,1.156933E4,2.010083E4,5.2178156E2,2.5249652E4,3.5273406E4,4.6189554E2,1.1107435E4,1.976183E4,3.390009E2,3.5622345E2,1.6555809E2],"tree_param":{"num_deleted":"0","num_feature":"12","num_nodes":"15","size_leaf_vector":"1"}},{"base_weights":[1.336161E-3,-1.9466212E-2,3.773001E-2,-5.8742657E-2,-5.1697344E-3,4.720807E-3,7.208228E-2,-4.172641E-3,1.8251137E-3,-2.5602865E-3,6.650866E-4,-2.280706E-3,4.86526E-3,3.0670273E-3,7.985011E-3],"categories":[],"categories_nodes":[],"categories_segments":[],"categories_sizes":[],"default_left":[0,0,0,0,0,0,0,0,0,0,0,0,0,0,0],"id":76,"left_children":[1,3,5,7,9,11,13,-1,-1,-1,-1,-1,-1,-1,-1],"loss_changes":[7.011461E1,3.308917E1,3.8194405E1,1.1850731E1,2.4803186E1,5.256902E1,2.1160309E1,0E0,0E0,0E0,0E0,0E0,0E0,0E0,0E0],"parents":[2147483647,0,0,1,1,2,2,3,3,4,4,5,5,6,6],"right_children":[2,4,6,8,10,12,14,-1,-1,-1,-1,-1,-1,-1,-1],"split_conditions":[3.3333334E-1,2.9850745E-1,1E0,3E0,2.7272728E-1,3.469751E-1,2E0,-4.172641E-3,1.8251137E-3,-2.5602865E-3,6.650866E-4,-2.280706E-3,4.86526E-3,3.0670273E-3,7.985011E-3],"split_indices":[8,7,9,0,8,7,0,0,0,0,0,0,0,0,0],"split_type":[0,0,0,0,0,0,0,0,0,0,0,0,0,0,0],"sum_hessian":[9.261012E4,5.892794E4,3.368218E4,1.5724689E4,4.320325E4,1.7177451E4,1.6504729E4,1.4335629E4,1.3890603E3,1.3202389E4,3.0000863E4,1.0991716E4,6.185735E3,1.1797852E4,4.7068765E3],"tree_param":{"num_deleted":"0","num_feature":"12","num_nodes":"15","size_leaf_vector":"1"}},{"base_weights":[1.2560468E-3,-1.2387689E-2,3.716429E-2,1.6591521E-2,-4.2354584E-2,6.9787815E-2,5.664558E-3,-2.53624E-4,2.7216661E-3,-4.49172E-3,-9.577643E-4,4.378098E-3,-5.3138867E-2,-1.1381473E-3,2.4357662E-3],"categories":[],"categories_nodes":[],"categories_segments":[],"categories_sizes":[],"default_left":[0,0,0,0,0,0,0,0,0,0,0,0,0,0,0],"id":77,"left_children":[1,3,5,7,9,11,13,-1,-1,-1,-1,-1,-1,-1,-1],"loss_changes":[4.5320934E1,5.8215477E1,2.6174278E1,1.9240475E1,2.6674122E1,9.489552E0,1.04639015E1,0E0,0E0,0E0,0E0,0E0,0E0,0E0,0E0],"parents":[2147483647,0,0,1,1,2,2,3,3,4,4,5,5,6,6],"right_children":[2,4,6,8,10,12,14,-1,-1,-1,-1,-1,-1,-1,-1],"split_conditions":[2E0,1E0,2E0,1E0,1E0,1.4E1,3E0,-2.53624E-4,2.7216661E-3,-4.49172E-3,-9.577643E-4,4.378098E-3,-5.3138867E-2,-1.1381473E-3,2.4357662E-3],"split_indices":[0,1,1,5,10,4,0,0,0,0,0,0,0,0,0],"split_type":[0,0,0,0,0,0,0,0,0,0,0,0,0,0,0],"sum_hessian":[9.2504375E4,6.7034516E4,2.5469855E4,3.407909E4,3.295543E4,1.2511145E4,1.2958711E4,1.9389834E4,1.4689259E4,1.5560633E4,1.7394795E4,1.2501099E4,1.0046113E1,7.5584746E3,5.4002363E3],"tree_param":{"num_deleted":"0","num_feature":"12","num_nodes":"15","size_leaf_vector":"1"}},{"base_weights":[-1.9300977E-3,-2.6126543E-2,2.3027081E-2,-2.4798793E-1,-2.0786269E-2,2.986709E-3,7.363735E-2,-1.1214297E-2,-2.9528301E-2,-2.2288777E-3,2.294493E-3,-3.2270426E-4,5.301785E-3,7.579429E-3,1.969661E-3],"categories":[],"categories_nodes":[],"categories_segments":[],"categories_sizes":[],"default_left":[0,0,0,0,0,0,0,0,0,0,0,0,0,0,0],"id":78,"left_children":[1,3,5,7,9,11,13,-1,-1,-1,-1,-1,-1,-1,-1],"loss_changes":[5.5808613E1,5.5590286E1,4.6141636E1,1.6811287E1,4.013465E1,2.2025084E1,2.625167E1,0E0,0E0,0E0,0E0,0E0,0E0,0E0,0E0],"parents":[2147483647,0,0,1,1,2,2,3,3,4,4,5,5,6,6],"right_children":[2,4,6,8,10,12,14,-1,-1,-1,-1,-1,-1,-1,-1],"split_conditions":[1E0,1.2962963E-1,3.448276E-1,2E0,3.7096775E-1,4E0,5E0,-1.1214297E-2,-2.9528301E-2,-2.2288777E-3,2.294493E-3,-3.2270426E-4,5.301785E-3,7.579429E-3,1.969661E-3],"split_indices":[9,7,8,11,7,11,3,0,0,0,0,0,0,0,0],"split_type":[0,0,0,0,0,0,0,0,0,0,0,0,0,0,0],"sum_hessian":[9.24155E4,4.6922867E4,4.5492633E4,1.1018334E3,4.582103E4,3.2589201E4,1.2903431E4,8.527046E2,2.4912875E2,3.630046E4,9.52057E3,2.964711E4,2.9420923E3,5.9720273E3,6.9314033E3],"tree_param":{"num_deleted":"0","num_feature":"12","num_nodes":"15","size_leaf_vector":"1"}},{"base_weights":[-2.3340883E-4,-2.3553297E-2,1.9537127E-2,-4.1913375E-2,6.595221E-4,-1.8115294E-3,7.119239E-2,-3.2781449E-3,4.984863E-4,3.4327793E-3,-4.295428E-3,-6.9436285E-4,6.0518803E-3,1.5453744E-2,3.6841983E-3],"categories":[],"categories_nodes":[],"categories_segments":[],"categories_sizes":[],"default_left":[0,0,0,0,0,0,0,0,0,0,0,0,0,0,0],"id":79,"left_children":[1,3,5,7,9,11,13,-1,-1,-1,-1,-1,-1,-1,-1],"loss_changes":[4.2636536E1,1.8862328E1,5.519109E1,1.3199619E1,6.999656E1,3.3040703E1,3.0678986E1,0E0,0E0,0E0,0E0,0E0,0E0,0E0,0E0],"parents":[2147483647,0,0,1,1,2,2,3,3,4,4,5,5,6,6],"right_children":[2,4,6,8,10,12,14,-1,-1,-1,-1,-1,-1,-1,-1],"split_conditions":[1E0,1E0,3.4246576E-1,3.646409E-1,2E0,4E0,3.4615386E-1,-3.2781449E-3,4.984863E-4,3.4327793E-3,-4.295428E-3,-6.9436285E-4,6.0518803E-3,1.5453744E-2,3.6841983E-3],"split_indices":[10,5,8,8,2,11,8,0,0,0,0,0,0,0,0],"split_type":[0,0,0,0,0,0,0,0,0,0,0,0,0,0,0],"sum_hessian":[9.247571E4,4.2429164E4,5.004655E4,2.4130654E4,1.8298508E4,3.541204E4,1.4634512E4,1.9792033E4,4.338621E3,1.0267479E4,8.03103E3,3.2357705E4,3.054334E3,9.071583E2,1.3727354E4],"tree_param":{"num_deleted":"0","num_feature":"12","num_nodes":"15","size_leaf_vector":"1"}},{"base_weights":[-8.239626E-5,-2.29174E-2,1.925728E-2,-3.9601203E-2,2.3736427E-2,1.0924851E-2,1.0713841E-1,-2.9531403E-3,2.5974298E-3,3.2374584E-3,-1.1884146E-3,-7.7120384E-4,2.1824609E-3,1.7893862E-2,-3.274639E-3],"categories":[],"categories_nodes":[],"categories_segments":[],"categories_sizes":[],"default_left":[0,0,0,0,0,0,0,0,0,0,0,0,0,0,0],"id":80,"left_children":[1,3,5,7,9,11,13,-1,-1,-1,-1,-1,-1,-1,-1],"loss_changes":[4.09046E1,3.3060844E1,3.6721855E1,2.045082E1,1.36669445E1,2.5971909E1,1.2603673E2,0E0,0E0,0E0,0E0,0E0,0E0,0E0,0E0],"parents":[2147483647,0,0,1,1,2,2,3,3,4,4,5,5,6,6],"right_children":[2,4,6,8,10,12,14,-1,-1,-1,-1,-1,-1,-1,-1],"split_conditions":[1E0,2E0,4E0,3E0,7E0,1E0,2E0,-2.9531403E-3,2.5974298E-3,3.2374584E-3,-1.1884146E-3,-7.7120384E-4,2.1824609E-3,1.7893862E-2,-3.274639E-3],"split_indices":[10,4,11,0,3,9,2,0,0,0,0,0,0,0,0],"split_type":[0,0,0,0,0,0,0,0,0,0,0,0,0,0,0],"sum_hessian":[9.262165E4,4.2472617E4,5.0149027E4,3.1284992E4,1.1187627E4,4.5806973E4,4.342053E3,2.8481861E4,2.8031309E3,6.724655E3,4.462972E3,2.3340434E4,2.2466541E4,2.0340896E3,2.3079639E3],"tree_param":{"num_deleted":"0","num_feature":"12","num_nodes":"15","size_leaf_vector":"1"}},{"base_weights":[1.7614375E-3,-2.90755E-2,1.8019559E-2,-1.372698E-1,-2.1690078E-2,2.0154051E-2,-2.3565389E-1,-5.582472E-3,-1.7873457E-2,-3.5991223E-4,-3.273103E-3,2.08192E-3,-9.229394E-4,-5.2744956E-3,-3.530514E-2],"categories":[],"categories_nodes":[],"categories_segments":[],"categories_sizes":[],"default_left":[0,0,0,0,0,0,0,0,0,0,0,0,0,0,0],"id":81,"left_children":[1,3,5,7,9,11,13,-1,-1,-1,-1,-1,-1,-1,-1],"loss_changes":[4.633759E1,2.5492714E1,3.2773277E1,1.4514191E1,1.4753095E1,2.8216974E1,2.5330769E1,0E0,0E0,0E0,0E0,0E0,0E0,0E0,0E0],"parents":[2147483647,0,0,1,1,2,2,3,3,4,4,5,5,6,6],"right_children":[2,4,6,8,10,12,14,-1,-1,-1,-1,-1,-1,-1,-1],"split_conditions":[3.0985916E-1,1.2962963E-1,6E-1,2E0,2E0,2E0,7E0,-5.582472E-3,-1.7873457E-2,-3.5991223E-4,-3.273103E-3,